%YAML:1.0
---
opencv_ml_svm:
   format: 3
   svmType: C_SVC
   kernel:
      type: RBF
      gamma: 5.0624999999999998e-01
   C: 1.2500000000000000e+01
   term_criteria: { epsilon:1.1920928955078125e-07, iterations:1000 }
   var_count: 324
   class_count: 13
   class_labels: !!opencv-matrix
      rows: 13
      cols: 1
      dt: i
      data: [ 0, 1, 2, 3, 4, 5, 6, 7, 8, 9, 10, 11, 12 ]
   sv_total: 644
   support_vectors:
      - [ 6.11025751e-01, 6.11025751e-01, 2.79419512e-01, 0., 0., 0., 0.,
          0., 4.11240757e-01, 4.31410640e-01, 4.31410640e-01,
          2.85901695e-01, 1.84143521e-02, 3.93939437e-03, 0.,
          4.11261082e-01, 4.31410640e-01, 4.31410640e-01, 1.51956707e-01,
          9.73073095e-02, 3.24618556e-02, 7.28079164e-03, 1.01128372e-03,
          0., 5.65886259e-01, 5.65886259e-01, 5.65886259e-01,
          1.03170030e-01, 5.87668896e-01, 5.87668896e-01, 3.23084950e-01,
          4.31428224e-01, 4.57059331e-02, 2.09621154e-03, 6.98737160e-04,
          1.30516998e-02, 1.70137405e-01, 3.94713253e-01, 3.49915355e-01,
          4.42979306e-01, 4.42979306e-01, 4.42979306e-01, 5.12954816e-02,
          2.93922335e-01, 1.03322633e-01, 1.08989485e-01, 1.23719759e-02,
          2.00492013e-02, 2.41717994e-01, 2.90703595e-01, 1.88348159e-01,
          4.52862918e-01, 5.47086298e-01, 5.47086298e-01, 4.46124941e-01,
          4.46124941e-01, 4.46124941e-01, 4.46124941e-01, 4.46124941e-01,
          1.38606112e-02, 1.43599755e-04, 4.78665788e-05, 1.46385767e-02,
          6.01032257e-01, 4.48104501e-01, 7.97492340e-02, 1.76252916e-01,
          5.96250415e-01, 1.52415961e-01, 4.09058121e-04, 1.22443700e-04,
          1.25662297e-01, 6.22889280e-01, 1.44816801e-01, 3.77532989e-02,
          1.22063212e-01, 3.30647230e-01, 1.47743702e-01, 9.42631289e-02,
          2.01148883e-01, 6.22889280e-01, 4.46124941e-01, 4.46124941e-01,
          4.46124941e-01, 4.46124941e-01, 4.46124941e-01, 1.38606112e-02,
          1.43599755e-04, 4.78665788e-05, 1.46385767e-02, 6.01032257e-01,
          4.48104501e-01, 7.97492340e-02, 1.76252916e-01, 5.96250415e-01,
          1.52415961e-01, 4.09058121e-04, 1.22443700e-04, 1.25662297e-01,
          6.22889280e-01, 1.44816801e-01, 3.77532989e-02, 1.22063212e-01,
          3.30647230e-01, 1.47743702e-01, 9.42631289e-02, 2.01148883e-01,
          6.22889280e-01, 4.85237449e-01, 4.85237449e-01, 2.56406218e-01,
          4.24233228e-01, 4.85237449e-01, 2.04665050e-01, 0., 0.,
          3.43737565e-02, 5.62050760e-01, 2.09561080e-01, 1.18604444e-01,
          1.86463445e-01, 5.62050760e-01, 5.18136680e-01, 0., 0.,
          3.69896889e-02, 5.53782105e-01, 1.35039300e-01, 6.57556653e-02,
          7.13729337e-02, 5.53782105e-01, 5.53782105e-01, 3.94213572e-02,
          3.96327935e-02, 2.08968252e-01, 5.37658393e-01, 2.01749519e-01,
          1.29610673e-01, 3.95019650e-01, 5.37658393e-01, 4.36040968e-01,
          4.84723505e-03, 3.50951566e-03, 1.12994693e-01, 3.82984757e-01,
          3.27249676e-01, 4.37892914e-01, 4.37892914e-01, 4.37892914e-01,
          3.97668034e-01, 2.94061173e-02, 1.25791067e-02, 8.62716958e-02,
          2.96922952e-01, 2.94122845e-01, 4.25211221e-01, 4.20074373e-01,
          4.69769806e-01, 4.69769806e-01, 1.21406838e-02, 3.81207429e-02,
          1.42832816e-01, 1.51956707e-01, 9.73073095e-02, 3.24618556e-02,
          7.28079164e-03, 1.01128372e-03, 0., 5.65886259e-01,
          5.65886259e-01, 5.65886259e-01, 3.69012564e-01, 3.69012564e-01,
          2.54236400e-01, 1.45902649e-01, 3.05561543e-01, 3.69012564e-01,
          3.69012564e-01, 3.69012564e-01, 3.69012564e-01, 4.47129101e-01,
          2.27438182e-01, 9.77580398e-02, 7.11498186e-02, 1.51960880e-01,
          4.47129101e-01, 4.47129101e-01, 3.26185048e-01, 4.47129101e-01,
          1.08989485e-01, 1.23719759e-02, 2.00492013e-02, 2.41717994e-01,
          2.90703595e-01, 1.88348159e-01, 4.52862918e-01, 5.47086298e-01,
          5.47086298e-01, 4.69364703e-01, 5.52422740e-02, 7.52390027e-02,
          3.09131797e-02, 9.22520980e-02, 2.11362943e-01, 2.77287573e-01,
          5.63174725e-01, 5.63174725e-01, 3.76409650e-01, 2.45260671e-01,
          3.76409650e-01, 9.98271480e-02, 2.75709718e-01, 3.76409650e-01,
          3.76409650e-01, 3.76409650e-01, 3.76409650e-01, 6.22889280e-01,
          1.44816801e-01, 3.77532989e-02, 1.22063212e-01, 3.30647230e-01,
          1.47743702e-01, 9.42631289e-02, 2.01148883e-01, 6.22889280e-01,
          5.14530063e-01, 1.14973977e-01, 6.04403578e-03, 2.31726598e-02,
          3.25154483e-01, 2.28254482e-01, 1.70351446e-01, 5.14530063e-01,
          5.14530063e-01, 1.39406785e-01, 1.71822697e-01, 1.57862917e-01,
          1.30446941e-01, 1.29530624e-01, 2.82516211e-01, 5.18758535e-01,
          5.18758535e-01, 5.18758535e-01, 6.22889280e-01, 1.44816801e-01,
          3.77532989e-02, 1.22063212e-01, 3.30647230e-01, 1.47743702e-01,
          9.42631289e-02, 2.01148883e-01, 6.22889280e-01, 5.14530063e-01,
          1.14973977e-01, 6.04403578e-03, 2.31726598e-02, 3.25154483e-01,
          2.28254482e-01, 1.70351446e-01, 5.14530063e-01, 5.14530063e-01,
          1.39406785e-01, 1.71822697e-01, 1.57862917e-01, 1.30446941e-01,
          1.29530624e-01, 2.82516211e-01, 5.18758535e-01, 5.18758535e-01,
          5.18758535e-01, 5.53782105e-01, 1.35039300e-01, 6.57556653e-02,
          7.13729337e-02, 5.53782105e-01, 5.53782105e-01, 3.94213572e-02,
          3.96327935e-02, 2.08968252e-01, 1.06231838e-01, 4.87095080e-02,
          1.52772097e-02, 2.82271896e-02, 5.75673163e-01, 5.75673163e-01,
          3.20699692e-01, 3.53794932e-01, 2.97901541e-01, 3.96479070e-01,
          1.74982905e-01, 1.13174766e-01, 9.71477702e-02, 3.96479070e-01,
          3.96479070e-01, 3.96479070e-01, 3.96479070e-01, 3.96479070e-01,
          2.96922952e-01, 2.94122845e-01, 4.25211221e-01, 4.20074373e-01,
          4.69769806e-01, 4.69769806e-01, 1.21406838e-02, 3.81207429e-02,
          1.42832816e-01, 4.15712267e-01, 4.15712267e-01, 1.49755687e-01,
          1.47334486e-02, 4.15712267e-01, 4.15712267e-01, 1.77156955e-01,
          4.15712267e-01, 2.78810799e-01, 5.58040977e-01, 5.58040977e-01,
          3.65594983e-01, 1.20369000e-02, 1.00488365e-01, 6.10641725e-02,
          6.92016780e-02, 2.00373873e-01, 4.23129171e-01 ]
      - [ 5.56210756e-01, 5.56210756e-01, 5.87715730e-02, 3.78218070e-02,
          1.85842350e-01, 5.56210756e-01, 1.50235727e-01, 3.09649091e-02,
          5.81624843e-02, 4.45218444e-01, 4.26523060e-01, 1.67073399e-01,
          1.12164527e-01, 5.28193951e-01, 5.28193951e-01, 1.18942283e-01,
          8.92180763e-03, 4.34126034e-02, 3.57311547e-01, 3.57311547e-01,
          3.57311547e-01, 3.57311547e-01, 3.57311547e-01, 3.57311547e-01,
          2.11460128e-01, 3.57311547e-01, 2.40860984e-01, 2.68524677e-01,
          2.88619608e-01, 2.42224321e-01, 5.17801754e-03, 1.40234232e-01,
          5.35427749e-01, 5.35427749e-01, 4.16334510e-01, 1.19083911e-01,
          3.95842642e-01, 3.95842642e-01, 3.95842642e-01, 3.04398745e-01,
          3.95842642e-01, 3.95842642e-01, 4.57826965e-02, 3.09953280e-02,
          3.41867208e-01, 3.52781117e-01, 3.52781117e-01, 3.52781117e-01,
          3.52781117e-01, 3.15792948e-01, 3.52781117e-01, 1.59901738e-01,
          3.52781117e-01, 3.52781117e-01, 1.61662940e-02, 1.43351734e-01,
          3.36501420e-01, 2.08744500e-02, 7.45582655e-02, 1.80401102e-01,
          6.35109901e-01, 6.35109901e-01, 1.19775757e-01, 2.32036456e-01,
          5.03311098e-01, 5.03311098e-01, 2.70098716e-01, 5.03311098e-01,
          2.68201947e-01, 8.07589814e-02, 1.02097750e-01, 1.39048800e-01,
          3.72473627e-01, 3.72473627e-01, 3.72473627e-01, 3.72473627e-01,
          3.72473627e-01, 3.72473627e-01, 1.63339540e-01, 1.69359937e-01,
          3.29387993e-01, 1.61662940e-02, 1.43351734e-01, 3.36501420e-01,
          2.08744500e-02, 7.45582655e-02, 1.80401102e-01, 6.35109901e-01,
          6.35109901e-01, 1.19775757e-01, 2.32036456e-01, 5.03311098e-01,
          5.03311098e-01, 2.70098716e-01, 5.03311098e-01, 2.68201947e-01,
          8.07589814e-02, 1.02097750e-01, 1.39048800e-01, 3.72473627e-01,
          3.72473627e-01, 3.72473627e-01, 3.72473627e-01, 3.72473627e-01,
          3.72473627e-01, 1.63339540e-01, 1.69359937e-01, 3.29387993e-01,
          1.15345186e-02, 3.75123061e-02, 2.33109549e-01, 5.37798882e-01,
          1.45797245e-02, 6.29910082e-03, 2.66108453e-01, 5.37798882e-01,
          5.37798882e-01, 6.06419481e-02, 3.03417891e-01, 5.38580596e-01,
          1.58386260e-01, 1.81040913e-02, 3.61174978e-02, 4.42274287e-02,
          5.38580596e-01, 5.38580596e-01, 3.91586900e-01, 3.91586900e-01,
          3.91586900e-01, 3.91586900e-01, 1.51148304e-01, 1.96209937e-01,
          1.21252008e-01, 3.91586900e-01, 3.91586900e-01, 9.71869379e-02,
          6.04282357e-02, 2.40200207e-01, 5.47171831e-01, 1.33105442e-01,
          5.87058328e-02, 6.62436262e-02, 5.47171831e-01, 5.47171831e-01,
          5.20805754e-02, 6.34206086e-02, 2.13762686e-01, 5.58463156e-01,
          7.65702054e-02, 6.81467867e-03, 2.10093614e-02, 5.58463156e-01,
          5.58463156e-01, 3.78283858e-01, 3.78283858e-01, 3.78283858e-01,
          3.78283858e-01, 2.81729192e-01, 1.95492446e-01, 2.41518855e-01,
          3.23739588e-01, 3.78283858e-01, 3.57311547e-01, 3.57311547e-01,
          3.57311547e-01, 3.57311547e-01, 3.57311547e-01, 3.57311547e-01,
          2.11460128e-01, 3.57311547e-01, 2.40860984e-01, 2.11407751e-01,
          2.41125554e-01, 3.97034854e-01, 3.97034854e-01, 3.97034854e-01,
          2.04986960e-01, 2.50989437e-01, 3.97034854e-01, 3.97034854e-01,
          1.43981501e-01, 5.80707714e-02, 1.70131966e-01, 4.40590918e-01,
          4.40590918e-01, 2.10443243e-01, 3.48974735e-01, 4.40590918e-01,
          4.40590918e-01, 3.52781117e-01, 3.52781117e-01, 3.52781117e-01,
          3.52781117e-01, 3.15792948e-01, 3.52781117e-01, 1.59901738e-01,
          3.52781117e-01, 3.52781117e-01, 3.29049826e-01, 1.29451662e-01,
          3.08130383e-01, 3.69453162e-01, 3.69453162e-01, 3.69453162e-01,
          3.06357592e-01, 3.69453162e-01, 3.69453162e-01, 2.10780740e-01,
          1.74446493e-01, 2.04186141e-01, 4.05458599e-01, 2.89218098e-01,
          4.05458599e-01, 4.05458599e-01, 4.05458599e-01, 3.71703774e-01,
          3.72473627e-01, 3.72473627e-01, 3.72473627e-01, 3.72473627e-01,
          3.72473627e-01, 3.72473627e-01, 1.63339540e-01, 1.69359937e-01,
          3.29387993e-01, 3.89314234e-01, 1.93733960e-01, 1.21012978e-01,
          3.89314234e-01, 3.89314234e-01, 3.89314234e-01, 1.85850322e-01,
          3.89314234e-01, 3.89314234e-01, 1.29518762e-01, 3.55047733e-01,
          1.49156094e-01, 2.30406031e-01, 3.94434035e-01, 3.94434035e-01,
          3.94434035e-01, 3.94434035e-01, 3.94434035e-01, 3.72473627e-01,
          3.72473627e-01, 3.72473627e-01, 3.72473627e-01, 3.72473627e-01,
          3.72473627e-01, 1.63339540e-01, 1.69359937e-01, 3.29387993e-01,
          3.89314234e-01, 1.93733960e-01, 1.21012978e-01, 3.89314234e-01,
          3.89314234e-01, 3.89314234e-01, 1.85850322e-01, 3.89314234e-01,
          3.89314234e-01, 1.29518762e-01, 3.55047733e-01, 1.49156094e-01,
          2.30406031e-01, 3.94434035e-01, 3.94434035e-01, 3.94434035e-01,
          3.94434035e-01, 3.94434035e-01, 3.91586900e-01, 3.91586900e-01,
          3.91586900e-01, 3.91586900e-01, 1.51148304e-01, 1.96209937e-01,
          1.21252008e-01, 3.91586900e-01, 3.91586900e-01, 3.40274781e-01,
          3.40274781e-01, 2.65150100e-01, 3.40274781e-01, 3.40274781e-01,
          3.40274781e-01, 3.40274781e-01, 3.40274781e-01, 3.40274781e-01,
          1.46646261e-01, 2.18412623e-01, 1.56127885e-01, 1.59408450e-01,
          9.47915837e-02, 4.89369631e-01, 4.89369631e-01, 4.89369631e-01,
          3.85593981e-01, 3.78283858e-01, 3.78283858e-01, 3.78283858e-01,
          3.78283858e-01, 2.81729192e-01, 1.95492446e-01, 2.41518855e-01,
          3.23739588e-01, 3.78283858e-01, 4.05244917e-01, 1.95881486e-01,
          2.09711060e-01, 2.52683789e-01, 4.05244917e-01, 4.05244917e-01,
          4.05244917e-01, 1.69224918e-01, 4.05244917e-01, 4.08752918e-01,
          4.08752918e-01, 2.75153946e-02, 5.20211235e-02, 3.39550197e-01,
          4.08752918e-01, 4.08752918e-01, 2.04363152e-01, 4.08752918e-01 ]
      - [ 4.94181216e-01, 4.94181216e-01, 2.20098093e-01, 1.40510902e-01,
          2.34133020e-01, 4.94181216e-01, 2.98768401e-01, 1.17908135e-01,
          1.90392777e-01, 4.69480813e-01, 4.69480813e-01, 2.20406756e-01,
          1.14667170e-01, 4.69480813e-01, 4.69480813e-01, 2.16950670e-01,
          4.93520610e-02, 4.93041798e-02, 2.63043523e-01, 4.75424618e-01,
          4.75424618e-01, 1.39322072e-01, 4.75424618e-01, 4.75424618e-01,
          2.47497074e-02, 5.41920168e-03, 4.35062200e-02, 4.92190599e-01,
          4.92190599e-01, 3.26402523e-02, 1.94252022e-02, 1.16525032e-01,
          4.92190599e-01, 4.92190599e-01, 7.00989664e-02, 7.83788040e-02,
          1.67564988e-01, 1.55657709e-01, 2.26776361e-01, 1.48413017e-01,
          5.77372968e-01, 5.77372968e-01, 3.91040355e-01, 1.58709586e-01,
          1.53795049e-01, 6.07726388e-02, 5.80226421e-01, 7.74482250e-01,
          1.12647332e-01, 1.80327073e-01, 7.90848061e-02, 2.18665805e-02,
          5.10036061e-03, 1.12070674e-02, 1.77280217e-01, 1.26241297e-01,
          4.06938978e-02, 5.40758185e-02, 3.53173822e-01, 5.76262236e-01,
          5.76262236e-01, 2.95973510e-01, 2.56538570e-01, 4.61984158e-01,
          4.61984158e-01, 4.61984158e-01, 6.01573177e-02, 1.11172676e-01,
          2.01083198e-01, 2.16519862e-01, 1.95894420e-01, 4.61984158e-01,
          3.99546772e-01, 4.85074431e-01, 4.85074431e-01, 4.73646857e-02,
          8.08096081e-02, 2.31313147e-02, 9.48876590e-02, 3.33636820e-01,
          4.85074431e-01, 1.77280217e-01, 1.26241297e-01, 4.06938978e-02,
          5.40758185e-02, 3.53173822e-01, 5.76262236e-01, 5.76262236e-01,
          2.95973510e-01, 2.56538570e-01, 4.61984158e-01, 4.61984158e-01,
          4.61984158e-01, 6.01573177e-02, 1.11172676e-01, 2.01083198e-01,
          2.16519862e-01, 1.95894420e-01, 4.61984158e-01, 3.99546772e-01,
          4.85074431e-01, 4.85074431e-01, 4.73646857e-02, 8.08096081e-02,
          2.31313147e-02, 9.48876590e-02, 3.33636820e-01, 4.85074431e-01,
          6.70697913e-02, 5.65599948e-02, 2.16700375e-01, 1.62899926e-01,
          2.56463945e-01, 3.48404616e-01, 5.50626576e-01, 5.50626576e-01,
          3.46077681e-01, 2.45613709e-01, 6.45165741e-01, 6.45165741e-01,
          1.73556075e-01, 8.02541748e-02, 8.50168541e-02, 9.15731490e-02,
          6.48931414e-02, 2.10637003e-01, 3.54762733e-01, 4.30473447e-01,
          4.70493138e-01, 1.35755986e-01, 2.93310303e-02, 1.32371541e-02,
          2.40855291e-02, 4.70493138e-01, 4.70493138e-01, 6.26668334e-02,
          1.08011924e-01, 2.92789012e-01, 5.02584696e-01, 3.13223124e-01,
          5.54020628e-02, 1.86303571e-01, 5.02584696e-01, 5.02584696e-01,
          2.02280238e-01, 3.02536666e-01, 4.37226295e-01, 4.37226295e-01,
          1.80025846e-01, 1.19402558e-01, 2.27712929e-01, 4.37226295e-01,
          4.37226295e-01, 4.31418903e-02, 1.11726768e-01, 5.61575949e-01,
          5.61575949e-01, 5.61575949e-01, 4.19466905e-02, 9.35003757e-02,
          4.16808091e-02, 1.47330806e-01, 2.63043523e-01, 4.75424618e-01,
          4.75424618e-01, 1.39322072e-01, 4.75424618e-01, 4.75424618e-01,
          2.47497074e-02, 5.41920168e-03, 4.35062200e-02, 4.36139643e-01,
          4.36139643e-01, 4.36139643e-01, 2.18327362e-02, 2.71467805e-01,
          1.61423013e-01, 3.12894374e-01, 1.91416889e-01, 4.36139643e-01,
          3.51549119e-01, 4.66648452e-02, 3.93947922e-02, 4.83292602e-02,
          2.35902965e-01, 3.80533487e-02, 5.90955257e-01, 5.90955257e-01,
          3.29988748e-01, 6.07726388e-02, 5.80226421e-01, 7.74482250e-01,
          1.12647332e-01, 1.80327073e-01, 7.90848061e-02, 2.18665805e-02,
          5.10036061e-03, 1.12070674e-02, 9.31692868e-03, 5.70609212e-01,
          7.02813089e-01, 2.59455554e-02, 8.20411183e-03, 5.02316561e-03,
          3.75935674e-01, 1.76053971e-01, 1.63696501e-02, 5.53331338e-03,
          1.27143459e-02, 2.15366744e-02, 2.37375423e-02, 2.71011293e-02,
          3.68968174e-02, 7.03416646e-01, 7.03416646e-01, 8.53924360e-03,
          3.99546772e-01, 4.85074431e-01, 4.85074431e-01, 4.73646857e-02,
          8.08096081e-02, 2.31313147e-02, 9.48876590e-02, 3.33636820e-01,
          4.85074431e-01, 1.29387956e-02, 6.69806719e-01, 6.69806719e-01,
          3.11428681e-02, 1.28208669e-02, 1.64306108e-02, 2.65346587e-01,
          1.47045702e-01, 4.92771603e-02, 3.63798022e-01, 3.07831883e-01,
          5.34927435e-02, 1.36888474e-02, 4.65025054e-03, 4.12842035e-02,
          6.15432441e-01, 6.15432441e-01, 6.67595118e-02, 3.99546772e-01,
          4.85074431e-01, 4.85074431e-01, 4.73646857e-02, 8.08096081e-02,
          2.31313147e-02, 9.48876590e-02, 3.33636820e-01, 4.85074431e-01,
          1.29387956e-02, 6.69806719e-01, 6.69806719e-01, 3.11428681e-02,
          1.28208669e-02, 1.64306108e-02, 2.65346587e-01, 1.47045702e-01,
          4.92771603e-02, 3.63798022e-01, 3.07831883e-01, 5.34927435e-02,
          1.36888474e-02, 4.65025054e-03, 4.12842035e-02, 6.15432441e-01,
          6.15432441e-01, 6.67595118e-02, 3.54762733e-01, 4.30473447e-01,
          4.70493138e-01, 1.35755986e-01, 2.93310303e-02, 1.32371541e-02,
          2.40855291e-02, 4.70493138e-01, 4.70493138e-01, 3.64413559e-01,
          4.91652459e-01, 4.91652459e-01, 9.66091752e-02, 3.77374962e-02,
          4.06814851e-02, 1.56141475e-01, 3.16754311e-01, 4.91652459e-01,
          4.24957037e-01, 4.24957037e-01, 1.00398727e-01, 5.51232360e-02,
          8.54830667e-02, 2.69047678e-01, 4.24957037e-01, 4.24957037e-01,
          4.24957037e-01, 4.31418903e-02, 1.11726768e-01, 5.61575949e-01,
          5.61575949e-01, 5.61575949e-01, 4.19466905e-02, 9.35003757e-02,
          4.16808091e-02, 1.47330806e-01, 1.25306055e-01, 4.57228161e-02,
          1.16297223e-01, 6.17307067e-01, 6.17307067e-01, 3.91982526e-01,
          1.08978488e-01, 3.83780524e-02, 1.82712227e-01, 1.76278219e-01,
          6.67575374e-02, 4.49793003e-02, 1.11072466e-01, 3.57361674e-01,
          7.98254490e-01, 4.06115055e-01, 1.48447622e-02, 1.09887108e-01 ]
      - [ 2.36935586e-01, 5.16754091e-02, 5.30223072e-01, 2.22288787e-01,
          5.30223072e-01, 5.30223072e-01, 1.15286410e-01, 4.98714037e-02,
          1.65215075e-01, 9.12613943e-02, 1.13669157e-01, 3.37720424e-01,
          9.74645987e-02, 6.48870468e-01, 6.48870468e-01, 6.11938834e-02,
          3.84396464e-02, 3.78162824e-02, 3.66837263e-01, 3.66837263e-01,
          3.66837263e-01, 2.09540352e-01, 3.66837263e-01, 3.66837263e-01,
          2.24435836e-01, 3.07634532e-01, 3.66837263e-01, 1.03377722e-01,
          1.83586240e-01, 9.01064649e-02, 3.25052254e-02, 1.67897642e-01,
          6.72495842e-01, 6.72495842e-01, 6.67206347e-02, 5.07668182e-02,
          9.69405547e-02, 4.68405813e-01, 4.68405813e-01, 7.89368004e-02,
          2.52578616e-01, 4.68405813e-01, 4.68405813e-01, 1.88827753e-01,
          5.12362793e-02, 5.26555143e-02, 4.72055286e-01, 6.36811435e-01,
          3.35736722e-02, 3.33055598e-03, 2.47243810e-02, 5.06661832e-01,
          3.20205569e-01, 3.89502794e-02, 1.58633113e-01, 4.70833808e-01,
          2.39709526e-01, 1.10569529e-01, 4.37232666e-02, 4.52189744e-01,
          4.84355837e-01, 4.84355837e-01, 5.51258661e-02, 4.24075991e-01,
          4.24075991e-01, 4.24075991e-01, 4.24909741e-02, 1.11547736e-02,
          6.98620602e-02, 3.04707080e-01, 4.20410544e-01, 4.24075991e-01,
          1.23966150e-01, 5.79380691e-01, 5.79380691e-01, 1.92128699e-02,
          5.74375386e-04, 3.52614257e-03, 3.71465474e-01, 2.61564523e-01,
          3.17330390e-01, 1.58633113e-01, 4.70833808e-01, 2.39709526e-01,
          1.10569529e-01, 4.37232666e-02, 4.52189744e-01, 4.84355837e-01,
          4.84355837e-01, 5.51258661e-02, 4.24075991e-01, 4.24075991e-01,
          4.24075991e-01, 4.24909741e-02, 1.11547736e-02, 6.98620602e-02,
          3.04707080e-01, 4.20410544e-01, 4.24075991e-01, 1.23966150e-01,
          5.79380691e-01, 5.79380691e-01, 1.92128699e-02, 5.74375386e-04,
          3.52614257e-03, 3.71465474e-01, 2.61564523e-01, 3.17330390e-01,
          2.03858241e-02, 2.65119988e-02, 4.13959444e-01, 2.44092241e-01,
          5.38570844e-02, 3.79998498e-02, 5.16567886e-01, 5.16567886e-01,
          4.74077851e-01, 2.39199102e-01, 4.69122022e-01, 4.84266341e-01,
          4.84266341e-01, 4.99876402e-02, 2.58670021e-02, 1.15302823e-01,
          1.98612049e-01, 4.39242959e-01, 3.98563415e-01, 3.98563415e-01,
          3.98563415e-01, 3.98563415e-01, 1.33566946e-01, 1.05150836e-02,
          1.57958061e-01, 3.98563415e-01, 3.98563415e-01, 1.26934797e-01,
          9.79025587e-02, 3.56213808e-01, 1.07628524e-01, 5.72984181e-02,
          4.27493230e-02, 7.00899139e-02, 6.40084684e-01, 6.40084684e-01,
          1.77210778e-01, 6.18972108e-02, 4.85845298e-01, 4.85845298e-01,
          2.82840461e-01, 1.11150593e-02, 2.12516971e-02, 4.13765371e-01,
          4.85845298e-01, 2.60645807e-01, 3.41922715e-02, 1.87179610e-01,
          5.33283412e-01, 5.33283412e-01, 1.83861002e-01, 2.79101562e-02,
          5.26806526e-02, 5.33283412e-01, 3.66837263e-01, 3.66837263e-01,
          3.66837263e-01, 2.09540352e-01, 3.66837263e-01, 3.66837263e-01,
          2.24435836e-01, 3.07634532e-01, 3.66837263e-01, 1.47644907e-01,
          4.84367684e-02, 7.16008395e-02, 4.38381016e-01, 4.38381016e-01,
          2.95690477e-01, 4.38381016e-01, 4.38381016e-01, 3.31970930e-01,
          1.47235245e-01, 3.19457948e-02, 4.61768508e-02, 5.15131712e-01,
          5.15131712e-01, 1.55590057e-01, 3.14704090e-01, 5.15131712e-01,
          2.25155845e-01, 5.26555143e-02, 4.72055286e-01, 6.36811435e-01,
          3.35736722e-02, 3.33055598e-03, 2.47243810e-02, 5.06661832e-01,
          3.20205569e-01, 3.89502794e-02, 6.47923574e-02, 6.06901348e-02,
          2.79279441e-01, 2.71123182e-02, 1.40097030e-02, 3.51854637e-02,
          6.71649277e-01, 6.71649277e-01, 5.49687073e-02, 2.44326517e-01,
          1.25623226e-01, 3.04552019e-01, 4.28913444e-01, 2.97493100e-01,
          3.18223417e-01, 4.28913444e-01, 4.28913444e-01, 2.92947650e-01,
          1.23966150e-01, 5.79380691e-01, 5.79380691e-01, 1.92128699e-02,
          5.74375386e-04, 3.52614257e-03, 3.71465474e-01, 2.61564523e-01,
          3.17330390e-01, 4.77762938e-01, 3.01356316e-01, 2.67837137e-01,
          1.77399088e-02, 1.05357179e-02, 6.65153563e-02, 5.29121101e-01,
          5.29121101e-01, 1.97782055e-01, 4.55588490e-01, 3.78881603e-01,
          7.10687563e-02, 1.02632292e-01, 2.28946656e-02, 7.44729787e-02,
          4.55588490e-01, 4.55588490e-01, 4.55588490e-01, 1.23966150e-01,
          5.79380691e-01, 5.79380691e-01, 1.92128699e-02, 5.74375386e-04,
          3.52614257e-03, 3.71465474e-01, 2.61564523e-01, 3.17330390e-01,
          4.77762938e-01, 3.01356316e-01, 2.67837137e-01, 1.77399088e-02,
          1.05357179e-02, 6.65153563e-02, 5.29121101e-01, 5.29121101e-01,
          1.97782055e-01, 4.55588490e-01, 3.78881603e-01, 7.10687563e-02,
          1.02632292e-01, 2.28946656e-02, 7.44729787e-02, 4.55588490e-01,
          4.55588490e-01, 4.55588490e-01, 3.98563415e-01, 3.98563415e-01,
          3.98563415e-01, 3.98563415e-01, 1.33566946e-01, 1.05150836e-02,
          1.57958061e-01, 3.98563415e-01, 3.98563415e-01, 4.02876675e-01,
          4.02876675e-01, 9.82331708e-02, 5.51761352e-02, 9.70738977e-02,
          4.02876675e-01, 4.02876675e-01, 4.02876675e-01, 4.02876675e-01,
          3.55682194e-01, 2.13127226e-01, 6.29078373e-02, 1.71915546e-01,
          1.51871562e-01, 4.89984185e-01, 4.89984185e-01, 4.89984185e-01,
          2.15272680e-01, 2.60645807e-01, 3.41922715e-02, 1.87179610e-01,
          5.33283412e-01, 5.33283412e-01, 1.83861002e-01, 2.79101562e-02,
          5.26806526e-02, 5.33283412e-01, 5.21607816e-01, 1.22596130e-01,
          2.44090203e-02, 2.53462046e-01, 3.26844096e-01, 5.21607816e-01,
          4.46576446e-01, 9.45481509e-02, 2.35744655e-01, 4.30443287e-01,
          4.30443287e-01, 8.70158076e-02, 1.98985860e-02, 2.51129568e-01,
          4.30443287e-01, 4.30443287e-01, 1.82325140e-01, 3.87683421e-01 ]
      - [ 3.77453357e-01, 3.77453357e-01, 3.77453357e-01, 3.77453357e-01,
          9.97859538e-02, 2.85095423e-01, 2.23978326e-01, 3.77453357e-01,
          3.77453357e-01, 3.78748477e-01, 3.34415525e-01, 3.78748477e-01,
          3.78748477e-01, 2.89930940e-01, 3.78748477e-01, 3.78748477e-01,
          2.40116164e-01, 1.59419745e-01, 4.42115277e-01, 4.42115277e-01,
          4.42115277e-01, 4.13604259e-01, 1.29404068e-01, 1.51742086e-01,
          3.05281766e-02, 4.41425219e-02, 4.42115277e-01, 1.44615427e-01,
          7.44660273e-02, 7.03757629e-02, 2.37596318e-01, 1.30559742e-01,
          1.97944492e-01, 5.32475650e-01, 5.32475650e-01, 5.32475650e-01,
          8.95950422e-02, 4.04628336e-01, 4.04628336e-01, 4.04628336e-01,
          9.91312787e-02, 2.66318113e-01, 4.04628336e-01, 4.04628336e-01,
          2.97586530e-01, 4.13254909e-02, 5.71287274e-01, 5.71287274e-01,
          5.71287274e-01, 3.52152660e-02, 7.37638632e-03, 6.04894981e-02,
          8.89698043e-02, 2.47166734e-02, 3.93239893e-02, 1.10481484e-02,
          3.34613249e-02, 6.35027587e-02, 8.74836817e-02, 3.56428742e-01,
          6.47070765e-01, 6.47070765e-01, 1.20925970e-01, 8.57723057e-02,
          3.94313663e-01, 3.94313663e-01, 3.94313663e-01, 1.45166069e-01,
          2.24703938e-01, 3.94313663e-01, 3.94313663e-01, 3.73794734e-01,
          5.53029552e-02, 1.05254337e-01, 6.18954957e-01, 6.18954957e-01,
          2.46023491e-01, 1.64698407e-01, 8.36495161e-02, 2.43934587e-01,
          2.43553668e-01, 3.93239893e-02, 1.10481484e-02, 3.34613249e-02,
          6.35027587e-02, 8.74836817e-02, 3.56428742e-01, 6.47070765e-01,
          6.47070765e-01, 1.20925970e-01, 8.57723057e-02, 3.94313663e-01,
          3.94313663e-01, 3.94313663e-01, 1.45166069e-01, 2.24703938e-01,
          3.94313663e-01, 3.94313663e-01, 3.73794734e-01, 5.53029552e-02,
          1.05254337e-01, 6.18954957e-01, 6.18954957e-01, 2.46023491e-01,
          1.64698407e-01, 8.36495161e-02, 2.43934587e-01, 2.43553668e-01,
          8.33731815e-02, 4.78140861e-02, 1.66950136e-01, 4.27977920e-01,
          2.19441235e-01, 3.13373320e-02, 4.91825342e-01, 4.91825342e-01,
          4.91825342e-01, 4.22384739e-01, 4.56624031e-02, 1.26194492e-01,
          2.35081837e-01, 1.61037058e-01, 1.12731412e-01, 1.45298854e-01,
          5.84264696e-01, 5.84264696e-01, 5.24664402e-01, 7.72147477e-02,
          2.56157070e-01, 5.24664402e-01, 2.50314146e-01, 1.10009342e-01,
          4.78992499e-02, 1.42513037e-01, 5.24664402e-01, 2.02774815e-02,
          1.36358403e-02, 1.91328973e-01, 7.28709400e-01, 6.49017870e-01,
          1.83616485e-02, 6.19379105e-04, 9.32862237e-03, 5.34441173e-02,
          3.74268979e-01, 2.82879341e-02, 6.35989336e-03, 5.30320585e-01,
          5.30320585e-01, 8.85932222e-02, 6.99297711e-03, 4.65677977e-02,
          5.30320585e-01, 5.19064605e-01, 9.05592814e-02, 6.72393963e-02,
          2.20751613e-01, 5.19064605e-01, 1.79503709e-01, 3.63954925e-03,
          3.04703027e-01, 5.19064605e-01, 4.42115277e-01, 4.42115277e-01,
          4.42115277e-01, 4.13604259e-01, 1.29404068e-01, 1.51742086e-01,
          3.05281766e-02, 4.41425219e-02, 4.42115277e-01, 3.80871415e-01,
          5.55769019e-02, 3.31805497e-02, 4.77916487e-02, 2.04163603e-02,
          3.21930391e-03, 2.65108962e-02, 6.48405671e-01, 6.48405671e-01,
          1.26924992e-01, 2.59877890e-02, 5.32102957e-02, 1.43755972e-01,
          7.70964995e-02, 0., 6.02408834e-02, 6.86763763e-01,
          6.86763763e-01, 4.13254909e-02, 5.71287274e-01, 5.71287274e-01,
          5.71287274e-01, 3.52152660e-02, 7.37638632e-03, 6.04894981e-02,
          8.89698043e-02, 2.47166734e-02, 1.47502631e-01, 1.57737091e-01,
          5.46766639e-01, 5.46766639e-01, 2.37915784e-01, 1.05544850e-02,
          1.24834418e-01, 2.69029319e-01, 4.53121006e-01, 2.54176576e-02,
          6.03489764e-03, 4.88967746e-02, 1.42019853e-01, 6.17083684e-02,
          3.12461727e-03, 1.62129745e-01, 6.85496211e-01, 6.85496211e-01,
          5.53029552e-02, 1.05254337e-01, 6.18954957e-01, 6.18954957e-01,
          2.46023491e-01, 1.64698407e-01, 8.36495161e-02, 2.43934587e-01,
          2.43553668e-01, 1.52481599e-02, 2.99354773e-02, 3.84654194e-01,
          6.49630487e-01, 6.49630487e-01, 8.29647109e-03, 1.31212296e-02,
          8.93844012e-03, 8.13985523e-03, 1.88280474e-02, 1.74996946e-02,
          6.26980141e-02, 5.91294527e-01, 5.91294527e-01, 3.52230147e-02,
          4.07487273e-01, 3.48342240e-01, 4.02094871e-02, 5.53029552e-02,
          1.05254337e-01, 6.18954957e-01, 6.18954957e-01, 2.46023491e-01,
          1.64698407e-01, 8.36495161e-02, 2.43934587e-01, 2.43553668e-01,
          1.52481599e-02, 2.99354773e-02, 3.84654194e-01, 6.49630487e-01,
          6.49630487e-01, 8.29647109e-03, 1.31212296e-02, 8.93844012e-03,
          8.13985523e-03, 1.88280474e-02, 1.74996946e-02, 6.26980141e-02,
          5.91294527e-01, 5.91294527e-01, 3.52230147e-02, 4.07487273e-01,
          3.48342240e-01, 4.02094871e-02, 5.24664402e-01, 7.72147477e-02,
          2.56157070e-01, 5.24664402e-01, 2.50314146e-01, 1.10009342e-01,
          4.78992499e-02, 1.42513037e-01, 5.24664402e-01, 2.16532513e-01,
          4.51462604e-02, 1.64357200e-01, 4.70445871e-01, 4.70445871e-01,
          1.15690552e-01, 1.43880591e-01, 4.70445871e-01, 4.70445871e-01,
          3.25294942e-01, 3.72851640e-01, 4.47321087e-01, 4.47321087e-01,
          4.47321087e-01, 2.18240380e-01, 1.44235149e-01, 1.01317808e-01,
          2.67787635e-01, 5.19064605e-01, 9.05592814e-02, 6.72393963e-02,
          2.20751613e-01, 5.19064605e-01, 1.79503709e-01, 3.63954925e-03,
          3.04703027e-01, 5.19064605e-01, 1.29115641e-01, 6.75484762e-02,
          9.52399522e-02, 6.45878837e-02, 4.68511671e-01, 3.88614982e-01,
          1.69100642e-01, 5.29676616e-01, 5.29676616e-01, 3.33266467e-01,
          3.33266467e-01, 3.33266467e-01, 3.33266467e-01, 3.33266467e-01,
          3.33266467e-01, 3.28842968e-01, 3.33266467e-01, 3.33266467e-01 ]
      - [ 4.41635221e-01, 1.39706835e-01, 1.81966528e-01, 1.12785004e-01,
          3.76830012e-01, 4.41635221e-01, 4.41635221e-01, 8.98379982e-02,
          4.41635221e-01, 1.63171932e-01, 4.58721936e-01, 4.58721936e-01,
          6.02775626e-02, 4.14696425e-01, 4.58721936e-01, 1.43330261e-01,
          2.02033997e-01, 3.17092657e-01, 4.59974617e-01, 4.59974617e-01,
          4.59974617e-01, 3.44084427e-02, 3.78099792e-02, 7.04929978e-02,
          3.64923477e-01, 2.82665402e-01, 3.74197811e-01, 1.46081224e-01,
          2.21644282e-01, 7.91208893e-02, 1.48638383e-01, 1.31225869e-01,
          6.51735306e-01, 6.51735306e-01, 7.09898397e-02, 1.51315525e-01,
          8.01644102e-03, 6.75598204e-01, 6.75598204e-01, 1.98965408e-02,
          3.52894552e-02, 1.56184345e-01, 2.04661250e-01, 1.10535122e-01,
          1.36545617e-02, 4.36140894e-04, 5.85547626e-01, 5.85547626e-01,
          8.78676493e-03, 0., 6.66908314e-03, 4.89843547e-01,
          2.61413187e-01, 3.97628546e-03, 7.78772905e-02, 2.17990190e-01,
          4.85369653e-01, 1.82446077e-01, 1.81742162e-01, 3.80698562e-01,
          4.85369653e-01, 4.85369653e-01, 1.53519839e-01, 1.02783339e-02,
          6.70737863e-01, 6.70737863e-01, 3.17020761e-03, 1.34755643e-02,
          6.41469285e-02, 2.86532253e-01, 8.32022950e-02, 9.48312227e-03,
          0., 6.18456304e-01, 6.18456304e-01, 1.23962481e-03,
          3.73521849e-04, 1.66580807e-02, 4.36279893e-01, 1.95523500e-01,
          0., 7.78772905e-02, 2.17990190e-01, 4.85369653e-01,
          1.82446077e-01, 1.81742162e-01, 3.80698562e-01, 4.85369653e-01,
          4.85369653e-01, 1.53519839e-01, 1.02783339e-02, 6.70737863e-01,
          6.70737863e-01, 3.17020761e-03, 1.34755643e-02, 6.41469285e-02,
          2.86532253e-01, 8.32022950e-02, 9.48312227e-03, 0.,
          6.18456304e-01, 6.18456304e-01, 1.23962481e-03, 3.73521849e-04,
          1.66580807e-02, 4.36279893e-01, 1.95523500e-01, 0.,
          2.86845788e-02, 4.19512764e-02, 4.51276660e-01, 4.95022297e-01,
          1.62029549e-01, 6.19147271e-02, 1.53604805e-01, 4.95022297e-01,
          4.95022297e-01, 1.38190538e-01, 5.78662157e-01, 5.78662157e-01,
          5.84096685e-02, 7.30283260e-02, 7.00869262e-02, 1.20917819e-01,
          3.00682247e-01, 4.32131201e-01, 7.80308992e-03, 6.24857724e-01,
          6.33252323e-01, 1.44848570e-01, 2.52265483e-01, 9.31143537e-02,
          3.05481434e-01, 1.24168359e-01, 1.16237774e-02, 1.60955548e-01,
          1.22474998e-01, 4.83796567e-01, 4.83796567e-01, 1.02094598e-01,
          7.35655650e-02, 4.67903912e-02, 4.83796567e-01, 4.83796567e-01,
          4.31331843e-01, 1.72544196e-01, 4.31331843e-01, 3.68239939e-01,
          1.67638138e-01, 1.40571073e-01, 2.22664282e-01, 4.18013960e-01,
          4.31331843e-01, 3.09458077e-01, 3.98347586e-01, 3.98347586e-01,
          3.98347586e-01, 3.98347586e-01, 3.98347586e-01, 1.47150934e-01,
          4.31914479e-02, 2.88675159e-01, 4.59974617e-01, 4.59974617e-01,
          4.59974617e-01, 3.44084427e-02, 3.78099792e-02, 7.04929978e-02,
          3.64923477e-01, 2.82665402e-01, 3.74197811e-01, 9.15561020e-02,
          2.01653522e-02, 4.92604934e-02, 1.27180815e-01, 2.85163343e-01,
          1.08916737e-01, 6.41280532e-01, 6.41280532e-01, 2.24821001e-01,
          5.96803576e-02, 4.15644050e-02, 2.27911085e-01, 6.37853980e-01,
          6.37853980e-01, 1.46855861e-01, 2.62452722e-01, 1.72889680e-01,
          4.84217741e-02, 4.36140894e-04, 5.85547626e-01, 5.85547626e-01,
          8.78676493e-03, 0., 6.66908314e-03, 4.89843547e-01,
          2.61413187e-01, 3.97628546e-03, 2.77568470e-04, 2.10941620e-02,
          3.09457593e-02, 9.63004492e-03, 1.34385787e-02, 4.17406522e-02,
          7.03400731e-01, 7.03400731e-01, 3.87578877e-03, 9.52485800e-02,
          2.42464721e-01, 4.28705424e-01, 4.28705424e-01, 2.50974000e-01,
          3.39274853e-01, 4.28705424e-01, 4.28705424e-01, 1.20861292e-01,
          0., 6.18456304e-01, 6.18456304e-01, 1.23962481e-03,
          3.73521849e-04, 1.66580807e-02, 4.36279893e-01, 1.95523500e-01,
          0., 4.17079404e-03, 4.50054742e-02, 6.58573508e-02,
          2.83821649e-03, 1.17349741e-03, 1.01736160e-02, 7.02316225e-01,
          7.02316225e-01, 0., 2.02861503e-01, 4.75986212e-01,
          4.75986212e-01, 9.62568820e-02, 1.19577616e-01, 1.24369688e-01,
          4.75986212e-01, 4.75986212e-01, 9.38597843e-02, 0.,
          6.18456304e-01, 6.18456304e-01, 1.23962481e-03, 3.73521849e-04,
          1.66580807e-02, 4.36279893e-01, 1.95523500e-01, 0.,
          4.17079404e-03, 4.50054742e-02, 6.58573508e-02, 2.83821649e-03,
          1.17349741e-03, 1.01736160e-02, 7.02316225e-01, 7.02316225e-01,
          0., 2.02861503e-01, 4.75986212e-01, 4.75986212e-01,
          9.62568820e-02, 1.19577616e-01, 1.24369688e-01, 4.75986212e-01,
          4.75986212e-01, 9.38597843e-02, 7.80308992e-03, 6.24857724e-01,
          6.33252323e-01, 1.44848570e-01, 2.52265483e-01, 9.31143537e-02,
          3.05481434e-01, 1.24168359e-01, 1.16237774e-02, 1.67826459e-01,
          7.40348473e-02, 4.98060212e-02, 1.03721702e-02, 9.26423371e-02,
          1.76380813e-01, 6.75700128e-01, 6.75700128e-01, 6.46927580e-02,
          5.79564571e-01, 5.79564571e-01, 1.18605472e-01, 1.78424157e-02,
          3.98270823e-02, 4.83898073e-02, 4.90979522e-01, 1.87595844e-01,
          1.66901365e-01, 3.09458077e-01, 3.98347586e-01, 3.98347586e-01,
          3.98347586e-01, 3.98347586e-01, 3.98347586e-01, 1.47150934e-01,
          4.31914479e-02, 2.88675159e-01, 3.93974811e-01, 2.72363245e-01,
          1.27802402e-01, 1.58819258e-02, 3.59466314e-01, 3.93974811e-01,
          3.93974811e-01, 3.93974811e-01, 3.93974811e-01, 4.92952824e-01,
          4.92952824e-01, 4.92952824e-01, 1.89653575e-01, 3.34558710e-02,
          1.63545355e-01, 3.32246035e-01, 1.94656283e-01, 2.32283473e-01 ]
      - [ 4.69485193e-01, 4.69485193e-01, 3.22969668e-02, 7.06056226e-03,
          1.61103025e-01, 4.69485193e-01, 4.69485193e-01, 1.07630678e-01,
          2.73886472e-01, 5.66647410e-01, 5.66647410e-01, 2.31501386e-02,
          4.75128461e-03, 1.03328846e-01, 5.61660469e-01, 6.91248924e-02,
          2.49418709e-02, 1.41650587e-01, 5.05386651e-01, 1.92140311e-01,
          1.96122769e-02, 9.37174931e-02, 4.03359592e-01, 5.05386651e-01,
          1.20971724e-01, 7.27117956e-02, 5.05386651e-01, 3.28573555e-01,
          5.77013552e-01, 5.12515545e-01, 1.64759215e-02, 1.04035595e-02,
          3.92768085e-01, 3.67586851e-01, 2.86839660e-02, 8.45213234e-03,
          3.95459324e-01, 4.30726051e-01, 1.72932655e-01, 4.65674512e-02,
          1.01300016e-01, 4.30726051e-01, 4.30726051e-01, 4.30726051e-01,
          2.34251514e-01, 4.29363579e-01, 4.29363579e-01, 1.43349081e-01,
          1.49446249e-01, 4.29363579e-01, 4.29363579e-01, 2.72137433e-01,
          1.96701422e-01, 3.20413977e-01, 2.44538784e-02, 6.49454474e-01,
          6.49454474e-01, 2.68514127e-01, 2.55043134e-02, 3.49326134e-02,
          2.52600849e-01, 1.05531871e-01, 2.05178224e-02, 4.36587483e-01,
          8.98397267e-02, 1.15423463e-01, 4.24874909e-02, 1.39272287e-01,
          4.36587483e-01, 4.36587483e-01, 4.36587483e-01, 4.36587483e-01,
          4.81047869e-01, 7.88716897e-02, 4.44714576e-02, 1.21585749e-01,
          4.81047869e-01, 4.81047869e-01, 6.90940544e-02, 2.04478875e-01,
          4.81047869e-01, 2.44538784e-02, 6.49454474e-01, 6.49454474e-01,
          2.68514127e-01, 2.55043134e-02, 3.49326134e-02, 2.52600849e-01,
          1.05531871e-01, 2.05178224e-02, 4.36587483e-01, 8.98397267e-02,
          1.15423463e-01, 4.24874909e-02, 1.39272287e-01, 4.36587483e-01,
          4.36587483e-01, 4.36587483e-01, 4.36587483e-01, 4.81047869e-01,
          7.88716897e-02, 4.44714576e-02, 1.21585749e-01, 4.81047869e-01,
          4.81047869e-01, 6.90940544e-02, 2.04478875e-01, 4.81047869e-01,
          4.72897589e-02, 7.04795346e-02, 6.48770869e-01, 6.48770869e-01,
          7.78773278e-02, 2.47258022e-02, 1.44455835e-01, 3.33075136e-01,
          7.76473209e-02, 6.71896935e-02, 2.95699656e-01, 3.71326834e-01,
          4.34347540e-01, 9.66800079e-02, 4.34347540e-01, 4.34347540e-01,
          4.34347540e-01, 4.29735556e-02, 4.03678954e-01, 4.03678954e-01,
          2.83498973e-01, 2.61772871e-01, 4.03678954e-01, 4.03678954e-01,
          3.20484281e-01, 1.40032366e-01, 2.70045519e-01, 2.14195237e-01,
          3.60388637e-01, 4.51494068e-01, 4.51494068e-01, 8.94697458e-02,
          4.67658136e-03, 2.14362573e-02, 4.46882159e-01, 4.51494068e-01,
          2.12666318e-02, 3.81500050e-02, 1.86488643e-01, 5.54969251e-01,
          3.19773227e-01, 2.97885425e-02, 3.06899875e-01, 5.54969251e-01,
          3.80080163e-01, 2.34440789e-01, 1.25523075e-01, 2.40632623e-01,
          4.63382155e-01, 4.63382155e-01, 3.97052020e-02, 7.92485625e-02,
          4.63382155e-01, 4.63382155e-01, 5.05386651e-01, 1.92140311e-01,
          1.96122769e-02, 9.37174931e-02, 4.03359592e-01, 5.05386651e-01,
          1.20971724e-01, 7.27117956e-02, 5.05386651e-01, 3.24621022e-01,
          1.78818345e-01, 3.74962419e-01, 3.74962419e-01, 3.74962419e-01,
          3.74962419e-01, 1.23767175e-01, 3.74962419e-01, 3.74962419e-01,
          3.41784395e-02, 4.97348942e-02, 2.55514771e-01, 5.47006130e-01,
          1.66916996e-01, 7.74494186e-03, 6.28185226e-03, 5.47006130e-01,
          5.47006130e-01, 4.29363579e-01, 4.29363579e-01, 1.43349081e-01,
          1.49446249e-01, 4.29363579e-01, 4.29363579e-01, 2.72137433e-01,
          1.96701422e-01, 3.20413977e-01, 3.29026103e-01, 3.36843878e-01,
          3.55365098e-01, 3.55365098e-01, 3.55365098e-01, 3.00484985e-01,
          3.55365098e-01, 3.55365098e-01, 2.30248988e-01, 1.21981956e-01,
          3.03747535e-01, 4.61237580e-01, 3.82348001e-01, 3.00955564e-01,
          5.22780158e-02, 1.02631316e-01, 4.61237580e-01, 4.61237580e-01,
          4.81047869e-01, 7.88716897e-02, 4.44714576e-02, 1.21585749e-01,
          4.81047869e-01, 4.81047869e-01, 6.90940544e-02, 2.04478875e-01,
          4.81047869e-01, 3.95445079e-01, 3.95445079e-01, 2.15528026e-01,
          3.95445079e-01, 3.95445079e-01, 8.78038257e-02, 6.02224804e-02,
          3.95445079e-01, 3.95445079e-01, 4.12277132e-01, 4.12277132e-01,
          4.12277132e-01, 4.12277132e-01, 3.81624252e-01, 5.19251525e-02,
          1.95588216e-01, 3.02298814e-01, 1.94985300e-01, 4.81047869e-01,
          7.88716897e-02, 4.44714576e-02, 1.21585749e-01, 4.81047869e-01,
          4.81047869e-01, 6.90940544e-02, 2.04478875e-01, 4.81047869e-01,
          3.95445079e-01, 3.95445079e-01, 2.15528026e-01, 3.95445079e-01,
          3.95445079e-01, 8.78038257e-02, 6.02224804e-02, 3.95445079e-01,
          3.95445079e-01, 4.12277132e-01, 4.12277132e-01, 4.12277132e-01,
          4.12277132e-01, 3.81624252e-01, 5.19251525e-02, 1.95588216e-01,
          3.02298814e-01, 1.94985300e-01, 4.03678954e-01, 4.03678954e-01,
          2.83498973e-01, 2.61772871e-01, 4.03678954e-01, 4.03678954e-01,
          3.20484281e-01, 1.40032366e-01, 2.70045519e-01, 4.13929671e-01,
          6.93205893e-02, 1.87043861e-01, 4.13929671e-01, 4.13929671e-01,
          2.39389986e-01, 2.05129206e-01, 4.13929671e-01, 4.13929671e-01,
          4.03168835e-02, 3.68749946e-01, 4.47564214e-01, 4.47564214e-01,
          1.45589381e-01, 2.91966647e-01, 3.37204933e-01, 4.47564214e-01,
          1.91932872e-01, 2.34440789e-01, 1.25523075e-01, 2.40632623e-01,
          4.63382155e-01, 4.63382155e-01, 3.97052020e-02, 7.92485625e-02,
          4.63382155e-01, 4.63382155e-01, 4.51382846e-01, 4.16835457e-01,
          4.72803786e-02, 1.65911734e-01, 4.51382846e-01, 4.51382846e-01,
          1.95550486e-01, 1.19616538e-01, 3.58036041e-01, 4.72179025e-01,
          4.72179025e-01, 4.47463393e-01, 4.92167957e-02, 2.55398482e-01,
          4.72179025e-01, 2.32698172e-01, 6.34623468e-02, 1.93543490e-02 ]
      - [ 4.87980336e-01, 4.87980336e-01, 1.69032708e-01, 1.01088166e-01,
          4.87980336e-01, 4.87980336e-01, 5.01707755e-02, 8.32325371e-04,
          3.63090448e-02, 2.69463927e-01, 2.99055427e-01, 5.69461472e-02,
          3.00796423e-02, 6.37090325e-01, 6.46459818e-01, 4.54063974e-02,
          1.76087264e-02, 3.44534740e-02, 2.21019700e-01, 4.38128859e-01,
          4.38128859e-01, 4.11808163e-01, 4.38128859e-01, 4.38128859e-01,
          5.10644726e-02, 3.78462858e-02, 7.29411170e-02, 2.72942096e-01,
          2.24840984e-01, 1.35900080e-01, 1.34895165e-02, 4.59609717e-01,
          4.86265421e-01, 4.86265421e-01, 3.84437203e-01, 1.39644131e-01,
          4.01267380e-01, 4.01267380e-01, 3.87395918e-01, 9.42773744e-02,
          3.71326655e-01, 4.01267380e-01, 1.93915024e-01, 1.32207632e-01,
          4.01267380e-01, 2.97396600e-01, 5.49070358e-01, 5.49070358e-01,
          3.92706871e-01, 9.51885954e-02, 3.30926552e-02, 3.88911813e-02,
          1.32033765e-01, 3.46114874e-01, 6.18915819e-02, 2.23967120e-01,
          3.97586316e-01, 3.80614027e-02, 8.33912417e-02, 2.34224319e-01,
          5.96632242e-01, 5.96632242e-01, 8.22928548e-02, 4.55756098e-01,
          3.65210861e-01, 1.83368668e-01, 2.65921980e-01, 4.55756098e-01,
          4.55756098e-01, 1.63329870e-01, 1.34923711e-01, 2.99513459e-01,
          3.67199063e-01, 4.58842993e-01, 4.58842993e-01, 4.58842993e-01,
          4.58842993e-01, 7.29562566e-02, 5.94548583e-02, 4.99615818e-02,
          8.41452628e-02, 6.18915819e-02, 2.23967120e-01, 3.97586316e-01,
          3.80614027e-02, 8.33912417e-02, 2.34224319e-01, 5.96632242e-01,
          5.96632242e-01, 8.22928548e-02, 4.55756098e-01, 3.65210861e-01,
          1.83368668e-01, 2.65921980e-01, 4.55756098e-01, 4.55756098e-01,
          1.63329870e-01, 1.34923711e-01, 2.99513459e-01, 3.67199063e-01,
          4.58842993e-01, 4.58842993e-01, 4.58842993e-01, 4.58842993e-01,
          7.29562566e-02, 5.94548583e-02, 4.99615818e-02, 8.41452628e-02,
          5.80666661e-02, 3.42214555e-02, 1.35122940e-01, 3.78160059e-01,
          7.49426931e-02, 8.35025981e-02, 4.79934663e-01, 5.41231275e-01,
          5.41231275e-01, 3.87694299e-01, 3.87694299e-01, 2.86770284e-01,
          1.62217811e-01, 2.70863295e-01, 3.87694299e-01, 2.50347108e-01,
          3.87694299e-01, 3.87694299e-01, 3.43861014e-01, 4.82179016e-01,
          4.82179016e-01, 4.82179016e-01, 2.33114704e-01, 2.38128334e-01,
          1.92849576e-01, 1.53096125e-01, 8.81871507e-02, 3.94517072e-02,
          5.30866608e-02, 1.28597379e-01, 5.55379033e-01, 2.18035132e-01,
          1.04289446e-02, 2.35863999e-02, 5.55379033e-01, 5.55379033e-01,
          5.08135222e-02, 1.56741589e-02, 2.04547811e-02, 5.71398258e-01,
          8.68829638e-02, 3.01278625e-02, 5.57119846e-02, 5.71398258e-01,
          5.71398258e-01, 4.09717947e-01, 4.09717947e-01, 4.09717947e-01,
          3.26612234e-01, 1.75583482e-01, 1.21061929e-01, 6.63465410e-02,
          4.09717947e-01, 4.09717947e-01, 2.21019700e-01, 4.38128859e-01,
          4.38128859e-01, 4.11808163e-01, 4.38128859e-01, 4.38128859e-01,
          5.10644726e-02, 3.78462858e-02, 7.29411170e-02, 3.41134727e-01,
          3.59087616e-01, 3.59087616e-01, 3.59087616e-01, 3.59087616e-01,
          2.88898855e-01, 3.59087616e-01, 3.59087616e-01, 1.51371896e-01,
          1.45211503e-01, 1.64032206e-01, 4.20151949e-01, 4.20151949e-01,
          4.20151949e-01, 1.48525387e-01, 2.07634121e-01, 4.20151949e-01,
          4.20151949e-01, 2.97396600e-01, 5.49070358e-01, 5.49070358e-01,
          3.92706871e-01, 9.51885954e-02, 3.30926552e-02, 3.88911813e-02,
          1.32033765e-01, 3.46114874e-01, 1.86724290e-01, 3.54334831e-01,
          3.54334831e-01, 3.54334831e-01, 3.54334831e-01, 2.87613600e-01,
          3.54334831e-01, 3.54334831e-01, 3.54334831e-01, 4.09928530e-01,
          2.80106831e-02, 1.21494688e-01, 4.09928530e-01, 4.09928530e-01,
          3.69342923e-01, 9.21103880e-02, 4.04098183e-01, 4.09928530e-01,
          3.67199063e-01, 4.58842993e-01, 4.58842993e-01, 4.58842993e-01,
          4.58842993e-01, 7.29562566e-02, 5.94548583e-02, 4.99615818e-02,
          8.41452628e-02, 3.61831218e-01, 3.61831218e-01, 3.61831218e-01,
          2.95043707e-01, 3.61831218e-01, 3.61831218e-01, 3.07671398e-01,
          1.70708761e-01, 3.61831218e-01, 4.54639673e-01, 5.05584851e-02,
          6.91133514e-02, 4.49819744e-01, 4.54639673e-01, 3.11645836e-01,
          3.86169702e-02, 2.59001851e-01, 4.54639673e-01, 3.67199063e-01,
          4.58842993e-01, 4.58842993e-01, 4.58842993e-01, 4.58842993e-01,
          7.29562566e-02, 5.94548583e-02, 4.99615818e-02, 8.41452628e-02,
          3.61831218e-01, 3.61831218e-01, 3.61831218e-01, 2.95043707e-01,
          3.61831218e-01, 3.61831218e-01, 3.07671398e-01, 1.70708761e-01,
          3.61831218e-01, 4.54639673e-01, 5.05584851e-02, 6.91133514e-02,
          4.49819744e-01, 4.54639673e-01, 3.11645836e-01, 3.86169702e-02,
          2.59001851e-01, 4.54639673e-01, 3.43861014e-01, 4.82179016e-01,
          4.82179016e-01, 4.82179016e-01, 2.33114704e-01, 2.38128334e-01,
          1.92849576e-01, 1.53096125e-01, 8.81871507e-02, 3.63928616e-01,
          3.29124480e-01, 3.63928616e-01, 3.63928616e-01, 2.81541735e-01,
          2.47483969e-01, 2.92073369e-01, 3.63928616e-01, 3.63928616e-01,
          4.02026266e-01, 3.29101443e-01, 1.75180882e-01, 4.02026266e-01,
          4.02026266e-01, 4.02026266e-01, 8.70536789e-02, 2.03183725e-01,
          4.02026266e-01, 4.09717947e-01, 4.09717947e-01, 4.09717947e-01,
          3.26612234e-01, 1.75583482e-01, 1.21061929e-01, 6.63465410e-02,
          4.09717947e-01, 4.09717947e-01, 3.88503045e-01, 3.88503045e-01,
          3.88503045e-01, 3.88503045e-01, 1.85537830e-01, 1.92797825e-01,
          3.43670666e-01, 2.27466360e-01, 3.88503045e-01, 4.18154687e-01,
          1.29210204e-01, 1.98260769e-01, 1.91371113e-01, 4.18154687e-01,
          4.18154687e-01, 4.18154687e-01, 1.70090109e-01, 4.18154687e-01 ]
      - [ 4.33580160e-01, 4.33580160e-01, 8.14973637e-02, 1.08185876e-02,
          3.48323472e-02, 4.33580160e-01, 4.33580160e-01, 3.38168442e-01,
          3.48384649e-01, 4.65511620e-01, 4.65511620e-01, 2.98423097e-02,
          1.25941727e-03, 8.74293149e-02, 3.41697752e-01, 7.49384686e-02,
          4.62966442e-01, 4.65511620e-01, 2.40870953e-01, 1.31196469e-01,
          6.24972917e-02, 3.46498638e-02, 4.09758985e-01, 1.70378253e-01,
          1.12560004e-01, 5.93353450e-01, 5.93353450e-01, 2.88401693e-01,
          4.44225758e-01, 4.44225758e-01, 8.70067477e-02, 3.00556004e-01,
          4.44225758e-01, 4.44225758e-01, 1.36733368e-01, 8.02563354e-02,
          3.40008736e-01, 3.69036376e-01, 3.69036376e-01, 3.68801177e-01,
          3.69036376e-01, 3.69036376e-01, 3.69036376e-01, 2.42007762e-01,
          7.20135421e-02, 6.91885268e-03, 1.73458066e-02, 3.87049094e-02,
          4.61037964e-01, 4.53045517e-01, 1.92247093e-01, 4.61037964e-01,
          4.61037964e-01, 3.37151051e-01, 1.42104793e-02, 4.27459806e-01,
          4.27459806e-01, 2.42067009e-01, 4.27459806e-01, 4.27459806e-01,
          4.26593423e-01, 1.47693187e-01, 4.74202260e-02, 6.55889511e-03,
          5.20868361e-01, 5.20868361e-01, 9.98288244e-02, 1.61166266e-01,
          2.10802004e-01, 5.20868361e-01, 3.15886050e-01, 2.61113644e-02,
          1.73060417e-01, 7.72390608e-03, 7.13242069e-02, 4.69399780e-01,
          4.69399780e-01, 1.30360499e-01, 4.69399780e-01, 4.69399780e-01,
          2.48749539e-01, 1.42104793e-02, 4.27459806e-01, 4.27459806e-01,
          2.42067009e-01, 4.27459806e-01, 4.27459806e-01, 4.26593423e-01,
          1.47693187e-01, 4.74202260e-02, 6.55889511e-03, 5.20868361e-01,
          5.20868361e-01, 9.98288244e-02, 1.61166266e-01, 2.10802004e-01,
          5.20868361e-01, 3.15886050e-01, 2.61113644e-02, 1.73060417e-01,
          7.72390608e-03, 7.13242069e-02, 4.69399780e-01, 4.69399780e-01,
          1.30360499e-01, 4.69399780e-01, 4.69399780e-01, 2.48749539e-01,
          2.81059779e-02, 4.85950053e-01, 4.85950053e-01, 2.25903645e-01,
          1.80700317e-01, 8.56881663e-02, 4.28344697e-01, 4.85950053e-01,
          1.06805786e-01, 8.82093534e-02, 4.20060307e-01, 4.20060307e-01,
          4.20060307e-01, 4.20060307e-01, 1.06100859e-02, 4.01205540e-01,
          2.85012066e-01, 1.99775189e-01, 4.99575764e-01, 2.82051018e-03,
          6.85206382e-03, 6.25891015e-02, 4.99575764e-01, 2.17218176e-02,
          3.88365835e-01, 3.01679641e-01, 4.99575764e-01, 8.05700496e-02,
          1.08760849e-01, 3.98884386e-01, 3.98884386e-01, 3.98884386e-01,
          1.51796922e-01, 3.98884386e-01, 3.98884386e-01, 3.98884386e-01,
          9.78560001e-02, 7.41957352e-02, 4.90492642e-01, 5.46089768e-01,
          5.46089768e-01, 1.43996030e-01, 2.64695026e-02, 1.83867425e-01,
          2.95316905e-01, 1.35628968e-01, 1.46899081e-03, 4.00379254e-03,
          1.83556154e-01, 9.31410909e-01, 1.95842937e-01, 1.77660044e-02,
          2.28252988e-02, 1.78560153e-01, 2.40870953e-01, 1.31196469e-01,
          6.24972917e-02, 3.46498638e-02, 4.09758985e-01, 1.70378253e-01,
          1.12560004e-01, 5.93353450e-01, 5.93353450e-01, 7.57736564e-02,
          8.68429542e-02, 2.95869529e-01, 4.54009622e-01, 4.54009622e-01,
          1.97612375e-01, 3.26028168e-01, 4.54009622e-01, 3.61833811e-01,
          1.54816374e-01, 1.42072797e-01, 3.08957487e-01, 4.70426381e-01,
          4.42299992e-01, 1.21662654e-01, 1.01776212e-01, 4.38523084e-01,
          4.70426381e-01, 6.91885268e-03, 1.73458066e-02, 3.87049094e-02,
          4.61037964e-01, 4.53045517e-01, 1.92247093e-01, 4.61037964e-01,
          4.61037964e-01, 3.37151051e-01, 1.33131305e-02, 4.87408675e-02,
          7.00390711e-02, 1.55196801e-01, 2.06551149e-01, 2.27017105e-01,
          6.31727874e-01, 6.31727874e-01, 2.64173746e-01, 3.59689184e-02,
          1.09929435e-01, 4.36466664e-01, 4.36466664e-01, 4.31538463e-01,
          2.72363991e-01, 4.36466664e-01, 3.65378499e-01, 1.29782081e-01,
          1.73060417e-01, 7.72390608e-03, 7.13242069e-02, 4.69399780e-01,
          4.69399780e-01, 1.30360499e-01, 4.69399780e-01, 4.69399780e-01,
          2.48749539e-01, 4.49338496e-01, 4.50689420e-02, 2.74303202e-02,
          2.29790136e-01, 4.49338496e-01, 1.85090765e-01, 4.49338496e-01,
          3.13122481e-01, 4.49338496e-01, 5.79930365e-01, 1.95592403e-01,
          2.94532627e-01, 4.97182459e-02, 1.93650305e-01, 1.39545664e-01,
          1.98722318e-01, 3.12456071e-01, 5.79930365e-01, 1.73060417e-01,
          7.72390608e-03, 7.13242069e-02, 4.69399780e-01, 4.69399780e-01,
          1.30360499e-01, 4.69399780e-01, 4.69399780e-01, 2.48749539e-01,
          4.49338496e-01, 4.50689420e-02, 2.74303202e-02, 2.29790136e-01,
          4.49338496e-01, 1.85090765e-01, 4.49338496e-01, 3.13122481e-01,
          4.49338496e-01, 5.79930365e-01, 1.95592403e-01, 2.94532627e-01,
          4.97182459e-02, 1.93650305e-01, 1.39545664e-01, 1.98722318e-01,
          3.12456071e-01, 5.79930365e-01, 4.99575764e-01, 2.82051018e-03,
          6.85206382e-03, 6.25891015e-02, 4.99575764e-01, 2.17218176e-02,
          3.88365835e-01, 3.01679641e-01, 4.99575764e-01, 5.74222505e-01,
          5.45330928e-04, 6.75051648e-04, 3.28829549e-02, 5.74222505e-01,
          6.17345013e-02, 1.28380638e-02, 3.67220561e-03, 5.74222505e-01,
          5.19953132e-01, 1.45471422e-02, 1.23033850e-02, 1.96233876e-02,
          5.19953132e-01, 1.85742855e-01, 2.88224220e-01, 2.55796611e-01,
          5.19953132e-01, 1.35628968e-01, 1.46899081e-03, 4.00379254e-03,
          1.83556154e-01, 9.31410909e-01, 1.95842937e-01, 1.77660044e-02,
          2.28252988e-02, 1.78560153e-01, 2.53954411e-01, 7.12323114e-02,
          1.46591282e-02, 1.56266719e-01, 8.91115129e-01, 2.50724852e-01,
          1.23889325e-02, 1.80264208e-02, 1.98695570e-01, 4.92305726e-01,
          4.92305726e-01, 2.57477853e-02, 8.80354494e-02, 4.92305726e-01,
          4.44091350e-01, 2.05145553e-01, 6.79553375e-02, 1.25121474e-01 ]
      - [ 6.85092211e-01, 1.11625306e-01, 4.70858887e-02, 0.,
          1.77378990e-02, 3.29813175e-02, 6.84251776e-03, 1.95784792e-01,
          6.85092211e-01, 4.92589295e-01, 4.92589295e-01, 4.92589295e-01,
          8.51606950e-02, 8.64813551e-02, 5.40067367e-02, 4.60227579e-02,
          6.88264817e-02, 4.92589295e-01, 3.81970406e-01, 2.55343348e-01,
          3.26538622e-01, 1.12226300e-01, 3.24339002e-01, 4.32499379e-01,
          4.32499379e-01, 3.79286855e-01, 2.05402568e-01, 4.63291705e-01,
          1.21886572e-02, 4.63890983e-03, 1.29471049e-01, 4.29099828e-01,
          4.63291705e-01, 3.34325045e-01, 1.96524888e-01, 4.63291705e-01,
          4.34461355e-01, 1.16699100e-01, 4.30310592e-02, 2.59736050e-02,
          4.34461355e-01, 4.34461355e-01, 2.95050323e-01, 3.70720416e-01,
          4.34461355e-01, 3.97771448e-02, 1.52086308e-02, 1.43363876e-02,
          9.83129907e-03, 1.86127529e-01, 5.57125926e-01, 5.57125926e-01,
          5.57125926e-01, 1.62816912e-01, 1.79987587e-02, 1.74310673e-02,
          1.09110624e-02, 2.39681184e-01, 5.46172917e-01, 5.46172917e-01,
          5.46172917e-01, 1.36067703e-01, 1.51402503e-01, 8.31971839e-02,
          8.58435035e-02, 8.78017098e-02, 5.29621542e-01, 5.29621542e-01,
          5.29621542e-01, 2.00949445e-01, 2.02928215e-01, 2.22830907e-01,
          1.04145706e-02, 3.19186226e-02, 3.32374945e-02, 1.55599996e-01,
          4.87128794e-01, 4.87128794e-01, 4.87128794e-01, 4.87128794e-01,
          1.39690533e-01, 1.79987587e-02, 1.74310673e-02, 1.09110624e-02,
          2.39681184e-01, 5.46172917e-01, 5.46172917e-01, 5.46172917e-01,
          1.36067703e-01, 1.51402503e-01, 8.31971839e-02, 8.58435035e-02,
          8.78017098e-02, 5.29621542e-01, 5.29621542e-01, 5.29621542e-01,
          2.00949445e-01, 2.02928215e-01, 2.22830907e-01, 1.04145706e-02,
          3.19186226e-02, 3.32374945e-02, 1.55599996e-01, 4.87128794e-01,
          4.87128794e-01, 4.87128794e-01, 4.87128794e-01, 1.39690533e-01,
          4.46495920e-01, 3.78099531e-01, 1.06520653e-01, 7.12551698e-02,
          4.38210964e-01, 4.46495920e-01, 4.46495920e-01, 7.83316195e-02,
          1.99790716e-01, 3.20003420e-01, 3.44805956e-01, 3.30428332e-01,
          3.44805956e-01, 3.44805956e-01, 3.44805956e-01, 2.67624795e-01,
          3.44805956e-01, 3.44805956e-01, 2.38515109e-01, 3.85595560e-01,
          1.94177628e-01, 1.27096251e-01, 4.19531196e-01, 4.19531196e-01,
          1.79865330e-01, 4.19531196e-01, 4.19531196e-01, 3.81568789e-01,
          3.92332882e-01, 3.92332882e-01, 3.27184826e-01, 3.04332316e-01,
          3.92332882e-01, 3.92332882e-01, 1.52586579e-01, 1.08786888e-01,
          4.35435742e-01, 4.35435742e-01, 1.48252189e-01, 2.52912462e-01,
          4.35435742e-01, 4.35435742e-01, 3.52121532e-01, 1.00881852e-01,
          1.30855635e-01, 4.19907719e-01, 4.19907719e-01, 8.88859779e-02,
          8.07533637e-02, 2.57249206e-01, 4.19907719e-01, 4.19907719e-01,
          1.83286056e-01, 4.19907719e-01, 3.81970406e-01, 2.55343348e-01,
          3.26538622e-01, 1.12226300e-01, 3.24339002e-01, 4.32499379e-01,
          4.32499379e-01, 3.79286855e-01, 2.05402568e-01, 9.45253819e-02,
          3.22888017e-01, 4.00057554e-01, 4.00057554e-01, 4.00057554e-01,
          4.00057554e-01, 4.00057554e-01, 2.17339009e-01, 1.88003659e-01,
          3.56066644e-01, 2.38921121e-01, 2.58399248e-01, 8.90806466e-02,
          3.93653721e-01, 3.93653721e-01, 3.42989951e-01, 3.93653721e-01,
          3.93653721e-01, 3.97771448e-02, 1.52086308e-02, 1.43363876e-02,
          9.83129907e-03, 1.86127529e-01, 5.57125926e-01, 5.57125926e-01,
          5.57125926e-01, 1.62816912e-01, 6.64197654e-02, 2.37697706e-01,
          4.07558203e-01, 4.07558203e-01, 2.95962572e-01, 4.07558203e-01,
          4.07558203e-01, 3.92292559e-01, 1.70630410e-01, 3.73023361e-01,
          3.76488417e-01, 4.73171562e-01, 4.73171562e-01, 2.32175365e-02,
          9.52778384e-03, 0., 2.05134153e-01, 4.73171562e-01,
          1.04145706e-02, 3.19186226e-02, 3.32374945e-02, 1.55599996e-01,
          4.87128794e-01, 4.87128794e-01, 4.87128794e-01, 4.87128794e-01,
          1.39690533e-01, 3.58190566e-01, 3.58190566e-01, 3.58190566e-01,
          2.45932087e-01, 2.70281285e-01, 3.05096507e-01, 3.58190566e-01,
          3.58190566e-01, 3.58190566e-01, 3.66626561e-01, 5.73185623e-01,
          5.73185623e-01, 3.29599619e-01, 2.30998561e-01, 2.59082336e-02,
          6.74274191e-03, 2.60546841e-02, 1.98459625e-01, 1.04145706e-02,
          3.19186226e-02, 3.32374945e-02, 1.55599996e-01, 4.87128794e-01,
          4.87128794e-01, 4.87128794e-01, 4.87128794e-01, 1.39690533e-01,
          3.58190566e-01, 3.58190566e-01, 3.58190566e-01, 2.45932087e-01,
          2.70281285e-01, 3.05096507e-01, 3.58190566e-01, 3.58190566e-01,
          3.58190566e-01, 3.66626561e-01, 5.73185623e-01, 5.73185623e-01,
          3.29599619e-01, 2.30998561e-01, 2.59082336e-02, 6.74274191e-03,
          2.60546841e-02, 1.98459625e-01, 2.38515109e-01, 3.85595560e-01,
          1.94177628e-01, 1.27096251e-01, 4.19531196e-01, 4.19531196e-01,
          1.79865330e-01, 4.19531196e-01, 4.19531196e-01, 4.55091059e-01,
          4.55091059e-01, 4.55091059e-01, 4.55091059e-01, 2.36397624e-01,
          7.16908425e-02, 2.39480622e-02, 8.30526352e-02, 3.13891828e-01,
          3.58323604e-01, 3.58323604e-01, 3.58323604e-01, 3.58323604e-01,
          3.58323604e-01, 1.33643955e-01, 2.82468736e-01, 3.58323604e-01,
          3.58323604e-01, 4.19907719e-01, 4.19907719e-01, 8.88859779e-02,
          8.07533637e-02, 2.57249206e-01, 4.19907719e-01, 4.19907719e-01,
          1.83286056e-01, 4.19907719e-01, 1.08734950e-01, 1.25419214e-01,
          3.21088850e-01, 4.50112492e-01, 3.84802580e-01, 4.50112492e-01,
          4.50112492e-01, 2.04491362e-01, 2.59150773e-01, 1.21594153e-01,
          1.26115717e-02, 4.63915020e-01, 5.78836441e-01, 5.78836441e-01,
          2.76519246e-02, 3.63564044e-02, 1.46168828e-01, 2.65525192e-01 ]
      - [ 3.71551663e-01, 3.71551663e-01, 7.70433918e-02, 2.38966703e-01,
          3.71551663e-01, 3.71551663e-01, 3.71551663e-01, 3.23949516e-01,
          3.71551663e-01, 6.25546634e-01, 6.25546634e-01, 5.79535700e-02,
          3.16773318e-02, 9.97423679e-02, 2.05728680e-01, 1.69092372e-01,
          5.78654185e-02, 3.50088000e-01, 5.20567894e-01, 2.59445071e-01,
          6.75639957e-02, 3.91483866e-02, 3.03979844e-01, 5.20567894e-01,
          1.13047063e-01, 5.68832159e-02, 5.20567894e-01, 5.72564900e-01,
          5.72564900e-01, 4.71963972e-01, 7.48271942e-02, 1.45251930e-01,
          1.67182177e-01, 1.71142653e-01, 1.75162748e-01, 3.53934169e-02,
          4.09838259e-01, 4.09838259e-01, 6.42528236e-02, 3.13620344e-02,
          1.92832828e-01, 4.09838259e-01, 4.09838259e-01, 3.37301612e-01,
          4.09838259e-01, 4.00453150e-01, 3.17267209e-01, 3.16586137e-01,
          2.62839645e-01, 4.00453150e-01, 4.00453150e-01, 2.54072070e-01,
          1.41513586e-01, 4.00453150e-01, 6.00412562e-02, 5.81929505e-01,
          5.81929505e-01, 5.57557821e-01, 1.54283503e-02, 3.30036245e-02,
          2.86458004e-02, 1.21330461e-02, 1.16024092e-02, 3.58228832e-01,
          2.99435705e-01, 3.61416459e-01, 1.20699979e-01, 3.15181643e-01,
          3.99546444e-01, 3.99546444e-01, 2.33617201e-01, 3.99546444e-01,
          4.69932646e-01, 1.24384679e-01, 1.00660689e-01, 2.22416639e-01,
          4.69932646e-01, 4.69932646e-01, 1.66796088e-01, 9.52109694e-02,
          4.69932646e-01, 6.00412562e-02, 5.81929505e-01, 5.81929505e-01,
          5.57557821e-01, 1.54283503e-02, 3.30036245e-02, 2.86458004e-02,
          1.21330461e-02, 1.16024092e-02, 3.58228832e-01, 2.99435705e-01,
          3.61416459e-01, 1.20699979e-01, 3.15181643e-01, 3.99546444e-01,
          3.99546444e-01, 2.33617201e-01, 3.99546444e-01, 4.69932646e-01,
          1.24384679e-01, 1.00660689e-01, 2.22416639e-01, 4.69932646e-01,
          4.69932646e-01, 1.66796088e-01, 9.52109694e-02, 4.69932646e-01,
          1.20490365e-01, 1.49137750e-01, 6.54915750e-01, 6.54915750e-01,
          1.30018353e-01, 6.64524511e-02, 1.14815839e-01, 1.37072727e-01,
          2.13495031e-01, 6.78291842e-02, 2.14096278e-01, 3.75789940e-01,
          3.75789940e-01, 3.75789940e-01, 3.75789940e-01, 3.75789940e-01,
          3.75789940e-01, 3.13845843e-01, 3.90322208e-01, 2.56856322e-01,
          3.35872799e-01, 3.90322208e-01, 3.90322208e-01, 3.67056102e-01,
          1.70288160e-01, 2.10192502e-01, 3.90322208e-01, 3.83926868e-01,
          3.41826111e-01, 3.11788321e-01, 3.83926868e-01, 1.86679572e-01,
          1.01287007e-01, 3.83926868e-01, 3.83926868e-01, 3.83926868e-01,
          1.06727131e-01, 8.29331651e-02, 1.97157547e-01, 4.80715990e-01,
          4.80715990e-01, 1.90273598e-01, 4.80715990e-01, 3.51880133e-01,
          2.91155726e-01, 4.32375282e-01, 3.54485720e-01, 2.58373201e-01,
          4.32375282e-01, 4.32375282e-01, 2.14153543e-01, 1.88377053e-02,
          9.61963013e-02, 4.32375282e-01, 5.20567894e-01, 2.59445071e-01,
          6.75639957e-02, 3.91483866e-02, 3.03979844e-01, 5.20567894e-01,
          1.13047063e-01, 5.68832159e-02, 5.20567894e-01, 3.73267263e-01,
          2.57295549e-01, 3.73267263e-01, 3.73267263e-01, 3.73267263e-01,
          3.73267263e-01, 2.11562946e-01, 2.22126514e-01, 3.73267263e-01,
          4.78877462e-02, 6.28198683e-02, 1.67666346e-01, 4.89826679e-01,
          4.89826679e-01, 1.04624368e-02, 3.04291733e-02, 4.89826679e-01,
          4.89826679e-01, 4.00453150e-01, 3.17267209e-01, 3.16586137e-01,
          2.62839645e-01, 4.00453150e-01, 4.00453150e-01, 2.54072070e-01,
          1.41513586e-01, 4.00453150e-01, 3.41050595e-01, 3.41050595e-01,
          3.41050595e-01, 3.41050595e-01, 3.41050595e-01, 3.41050595e-01,
          3.41050595e-01, 2.57037580e-01, 3.41050595e-01, 1.19063236e-01,
          3.12007368e-01, 4.39310998e-01, 4.18736458e-01, 2.31437553e-02,
          1.33938936e-03, 3.59481663e-01, 4.39310998e-01, 4.39310998e-01,
          4.69932646e-01, 1.24384679e-01, 1.00660689e-01, 2.22416639e-01,
          4.69932646e-01, 4.69932646e-01, 1.66796088e-01, 9.52109694e-02,
          4.69932646e-01, 4.13826704e-01, 3.14819992e-01, 3.39035183e-01,
          4.13826704e-01, 4.13826704e-01, 9.65311453e-02, 8.82371739e-02,
          2.82303393e-01, 4.13826704e-01, 2.87006289e-01, 2.71755368e-01,
          4.13852841e-01, 4.00835365e-01, 1.12842061e-01, 4.13852841e-01,
          4.13852841e-01, 3.86410445e-01, 5.57162724e-02, 4.69932646e-01,
          1.24384679e-01, 1.00660689e-01, 2.22416639e-01, 4.69932646e-01,
          4.69932646e-01, 1.66796088e-01, 9.52109694e-02, 4.69932646e-01,
          4.13826704e-01, 3.14819992e-01, 3.39035183e-01, 4.13826704e-01,
          4.13826704e-01, 9.65311453e-02, 8.82371739e-02, 2.82303393e-01,
          4.13826704e-01, 2.87006289e-01, 2.71755368e-01, 4.13852841e-01,
          4.00835365e-01, 1.12842061e-01, 4.13852841e-01, 4.13852841e-01,
          3.86410445e-01, 5.57162724e-02, 3.90322208e-01, 2.56856322e-01,
          3.35872799e-01, 3.90322208e-01, 3.90322208e-01, 3.67056102e-01,
          1.70288160e-01, 2.10192502e-01, 3.90322208e-01, 3.38280320e-01,
          3.38280320e-01, 3.38280320e-01, 3.38280320e-01, 3.38280320e-01,
          3.38280320e-01, 3.38280320e-01, 2.84870714e-01, 3.38280320e-01,
          4.99684393e-01, 4.99684393e-01, 3.05010110e-01, 1.21677458e-01,
          1.89787537e-01, 4.99684393e-01, 3.17003369e-01, 3.74661498e-02,
          1.43204546e-02, 4.32375282e-01, 3.54485720e-01, 2.58373201e-01,
          4.32375282e-01, 4.32375282e-01, 2.14153543e-01, 1.88377053e-02,
          9.61963013e-02, 4.32375282e-01, 4.73167747e-01, 4.73167747e-01,
          2.34279022e-01, 1.41206026e-01, 4.73167747e-01, 4.73167747e-01,
          9.13508981e-03, 2.46086717e-03, 1.57504886e-01, 5.54554760e-01,
          5.54554760e-01, 2.47342139e-02, 2.44821813e-02, 1.48059487e-01,
          5.54554760e-01, 1.22804463e-01, 1.63556278e-01, 8.30964819e-02 ]
      - [ 1.46323413e-01, 4.63089615e-01, 4.63089615e-01, 2.45939404e-01,
          2.09174946e-01, 3.03195566e-01, 4.63089615e-01, 3.41682911e-01,
          1.33014202e-01, 1.70232370e-01, 5.93103953e-02, 3.44537497e-02,
          6.44826740e-02, 4.52506304e-01, 4.52506304e-01, 4.52506304e-01,
          4.25972313e-01, 4.02367771e-01, 4.38340902e-01, 7.53178075e-02,
          4.38200496e-02, 3.12771276e-02, 4.38340902e-01, 4.38340902e-01,
          4.38340902e-01, 1.62284866e-01, 4.38340902e-01, 4.22504872e-01,
          4.22504872e-01, 4.22504872e-01, 7.09301755e-02, 4.22504872e-01,
          4.22504872e-01, 8.06791857e-02, 1.28018230e-01, 2.74406105e-01,
          3.51327538e-01, 3.51327538e-01, 3.51327538e-01, 2.44306922e-01,
          3.51327538e-01, 3.51327538e-01, 3.51327538e-01, 2.69790053e-01,
          3.51327538e-01, 4.00679320e-01, 2.24393219e-01, 4.00679320e-01,
          4.00679320e-01, 4.00679320e-01, 3.45676571e-01, 1.28402546e-01,
          8.33417848e-02, 4.00679320e-01, 3.21625829e-01, 4.24881071e-01,
          4.24881071e-01, 4.24881071e-01, 1.30999535e-01, 3.10248673e-01,
          1.03745274e-01, 2.76356816e-01, 3.87543023e-01, 2.51187146e-01,
          2.45970860e-01, 3.32660079e-01, 3.46666336e-01, 1.85322106e-01,
          1.41318321e-01, 4.42278206e-01, 4.42278206e-01, 4.42278206e-01,
          3.81170899e-01, 1.38769791e-01, 3.81170899e-01, 3.81170899e-01,
          3.81170899e-01, 1.44015938e-01, 2.90597081e-01, 3.81170899e-01,
          3.81170899e-01, 3.21625829e-01, 4.24881071e-01, 4.24881071e-01,
          4.24881071e-01, 1.30999535e-01, 3.10248673e-01, 1.03745274e-01,
          2.76356816e-01, 3.87543023e-01, 2.51187146e-01, 2.45970860e-01,
          3.32660079e-01, 3.46666336e-01, 1.85322106e-01, 1.41318321e-01,
          4.42278206e-01, 4.42278206e-01, 4.42278206e-01, 3.81170899e-01,
          1.38769791e-01, 3.81170899e-01, 3.81170899e-01, 3.81170899e-01,
          1.44015938e-01, 2.90597081e-01, 3.81170899e-01, 3.81170899e-01,
          1.16933979e-01, 1.19292878e-01, 4.71143246e-01, 4.71143246e-01,
          1.88817874e-01, 1.25949532e-01, 1.67244077e-01, 4.71143246e-01,
          4.71143246e-01, 1.30515710e-01, 5.26932143e-02, 6.76833391e-02,
          5.21311224e-01, 5.21311224e-01, 6.76615089e-02, 9.85139683e-02,
          5.21311224e-01, 3.75263125e-01, 5.14334500e-01, 1.06336186e-02,
          7.72422552e-02, 4.16197956e-01, 5.14334500e-01, 5.61375543e-02,
          4.32991870e-02, 1.30064905e-01, 5.14334500e-01, 3.81672949e-01,
          3.81672949e-01, 3.81672949e-01, 3.67805958e-01, 9.64232683e-02,
          1.88842312e-01, 2.95932144e-01, 3.81672949e-01, 3.81672949e-01,
          4.01366293e-01, 3.68730724e-01, 1.00227088e-01, 4.01366293e-01,
          4.01366293e-01, 8.08018446e-02, 1.94882050e-01, 4.01366293e-01,
          4.01366293e-01, 4.87835228e-01, 2.40460262e-01, 9.37317163e-02,
          3.72892976e-01, 4.87835228e-01, 1.43567622e-01, 6.95624277e-02,
          2.23766446e-01, 4.87835228e-01, 4.38340902e-01, 7.53178075e-02,
          4.38200496e-02, 3.12771276e-02, 4.38340902e-01, 4.38340902e-01,
          4.38340902e-01, 1.62284866e-01, 4.38340902e-01, 4.43002075e-01,
          3.31531674e-01, 2.08604217e-01, 3.99896801e-01, 4.43002075e-01,
          2.19545066e-01, 1.92210779e-01, 9.12737474e-02, 4.43002075e-01,
          9.80703309e-02, 3.75510126e-01, 3.75510126e-01, 3.73839080e-01,
          3.18431407e-01, 3.75510126e-01, 2.01089770e-01, 3.75510126e-01,
          3.75510126e-01, 4.00679320e-01, 2.24393219e-01, 4.00679320e-01,
          4.00679320e-01, 4.00679320e-01, 3.45676571e-01, 1.28402546e-01,
          8.33417848e-02, 4.00679320e-01, 5.94888449e-01, 5.96804954e-02,
          5.64505272e-02, 2.90259749e-01, 4.21796978e-01, 3.70809585e-02,
          1.38469795e-02, 1.25685871e-01, 5.94888449e-01, 1.61167517e-01,
          1.45728618e-01, 3.34149480e-01, 4.65984255e-01, 3.96421552e-01,
          1.64472744e-01, 2.91987471e-02, 4.65984255e-01, 4.65984255e-01,
          3.81170899e-01, 1.38769791e-01, 3.81170899e-01, 3.81170899e-01,
          3.81170899e-01, 1.44015938e-01, 2.90597081e-01, 3.81170899e-01,
          3.81170899e-01, 4.89313602e-01, 1.97265148e-02, 2.91893594e-02,
          4.89313602e-01, 4.89313602e-01, 1.53690517e-01, 7.33718723e-02,
          8.45947564e-02, 4.89313602e-01, 1.07895099e-01, 8.04827958e-02,
          2.38789573e-01, 4.32143837e-01, 4.32143837e-01, 2.74549365e-01,
          3.13326508e-01, 4.32143837e-01, 4.32143837e-01, 3.81170899e-01,
          1.38769791e-01, 3.81170899e-01, 3.81170899e-01, 3.81170899e-01,
          1.44015938e-01, 2.90597081e-01, 3.81170899e-01, 3.81170899e-01,
          4.89313602e-01, 1.97265148e-02, 2.91893594e-02, 4.89313602e-01,
          4.89313602e-01, 1.53690517e-01, 7.33718723e-02, 8.45947564e-02,
          4.89313602e-01, 1.07895099e-01, 8.04827958e-02, 2.38789573e-01,
          4.32143837e-01, 4.32143837e-01, 2.74549365e-01, 3.13326508e-01,
          4.32143837e-01, 4.32143837e-01, 5.14334500e-01, 1.06336186e-02,
          7.72422552e-02, 4.16197956e-01, 5.14334500e-01, 5.61375543e-02,
          4.32991870e-02, 1.30064905e-01, 5.14334500e-01, 4.81582612e-01,
          5.95787838e-02, 1.81157496e-02, 2.17372969e-01, 4.81582612e-01,
          4.81582612e-01, 4.05579358e-02, 1.21363416e-01, 4.81582612e-01,
          3.55851382e-01, 3.55851382e-01, 2.64722496e-01, 1.99888185e-01,
          3.55851382e-01, 3.55851382e-01, 3.55851382e-01, 3.55851382e-01,
          3.55851382e-01, 4.87835228e-01, 2.40460262e-01, 9.37317163e-02,
          3.72892976e-01, 4.87835228e-01, 1.43567622e-01, 6.95624277e-02,
          2.23766446e-01, 4.87835228e-01, 3.92917424e-01, 3.92917424e-01,
          3.92917424e-01, 3.78377438e-01, 3.92917424e-01, 2.60134131e-01,
          2.04042010e-02, 1.73775524e-01, 3.70249718e-01, 3.61763209e-01,
          2.82632291e-01, 3.61763209e-01, 1.76034734e-01, 3.16671342e-01,
          3.61763209e-01, 3.61763209e-01, 3.61763209e-01, 3.61763209e-01 ]
      - [ 5.02513528e-01, 5.02513528e-01, 5.02513528e-01, 3.50668222e-01,
          1.70125693e-01, 9.43441764e-02, 1.13995321e-01, 1.06241241e-01,
          2.28752792e-01, 6.56662703e-01, 6.56662703e-01, 3.28843780e-02,
          2.50165220e-02, 7.73835778e-02, 1.18286431e-01, 8.58547352e-03,
          4.00322117e-02, 3.28129619e-01, 5.27149677e-01, 1.25799984e-01,
          4.09305356e-02, 1.83277596e-02, 3.76100451e-01, 5.27149677e-01,
          3.30488533e-02, 2.63528414e-02, 5.27149677e-01, 2.47169569e-01,
          6.81617677e-01, 6.81617677e-01, 3.21768522e-02, 1.05916830e-02,
          1.77885424e-02, 3.12619656e-02, 1.68800857e-02, 1.30812610e-02,
          4.25102711e-01, 4.25102711e-01, 2.03035519e-01, 5.20562418e-02,
          2.40397200e-01, 4.25102711e-01, 4.25102711e-01, 2.68507719e-01,
          3.14775586e-01, 3.59461337e-01, 3.59461337e-01, 2.70581543e-01,
          3.59461337e-01, 3.59461337e-01, 3.59461337e-01, 3.59461337e-01,
          1.36774108e-01, 3.59461337e-01, 1.25778709e-02, 6.99432313e-01,
          6.99432313e-01, 1.13573477e-01, 2.95442995e-02, 8.24670307e-03,
          1.01874247e-02, 1.27051109e-02, 1.85347181e-02, 3.65244627e-01,
          3.38696152e-01, 3.65244627e-01, 7.52860084e-02, 3.65244627e-01,
          3.65244627e-01, 3.65244627e-01, 2.74856448e-01, 3.65244627e-01,
          4.53842938e-01, 6.07039332e-02, 6.82382658e-02, 3.73064637e-01,
          4.53842938e-01, 4.18876261e-01, 1.06175117e-01, 2.08080336e-01,
          4.53842938e-01, 1.25778709e-02, 6.99432313e-01, 6.99432313e-01,
          1.13573477e-01, 2.95442995e-02, 8.24670307e-03, 1.01874247e-02,
          1.27051109e-02, 1.85347181e-02, 3.65244627e-01, 3.38696152e-01,
          3.65244627e-01, 7.52860084e-02, 3.65244627e-01, 3.65244627e-01,
          3.65244627e-01, 2.74856448e-01, 3.65244627e-01, 4.53842938e-01,
          6.07039332e-02, 6.82382658e-02, 3.73064637e-01, 4.53842938e-01,
          4.18876261e-01, 1.06175117e-01, 2.08080336e-01, 4.53842938e-01,
          1.61710791e-02, 3.91127169e-01, 6.46101534e-01, 6.46101534e-01,
          4.65870500e-02, 1.65114820e-03, 5.54146506e-02, 9.74698085e-03,
          8.62175040e-03, 2.11537480e-01, 3.34342659e-01, 3.93819809e-01,
          3.93819809e-01, 2.27135748e-01, 3.93819809e-01, 3.93819809e-01,
          3.93819809e-01, 1.11676440e-01, 3.86942148e-01, 3.27511549e-01,
          1.00104816e-01, 3.86942148e-01, 3.86942148e-01, 3.86942148e-01,
          1.43662184e-01, 3.31043094e-01, 3.86942148e-01, 9.91601497e-02,
          4.89078969e-01, 4.89078969e-01, 4.89078969e-01, 4.89078969e-01,
          1.63984060e-01, 3.81573476e-02, 2.66242982e-03, 1.16529521e-02,
          3.33726057e-03, 2.50017829e-02, 1.47190094e-01, 5.25994837e-01,
          5.25994837e-01, 1.05833754e-01, 1.41587496e-01, 5.25994837e-01,
          3.33446234e-01, 3.71623307e-01, 1.71538204e-01, 2.95287631e-02,
          4.57593501e-01, 4.57593501e-01, 2.71612048e-01, 2.85104066e-02,
          3.52514952e-01, 4.57593501e-01, 5.27149677e-01, 1.25799984e-01,
          4.09305356e-02, 1.83277596e-02, 3.76100451e-01, 5.27149677e-01,
          3.30488533e-02, 2.63528414e-02, 5.27149677e-01, 4.04814392e-01,
          2.01322481e-01, 2.95558870e-01, 1.57217368e-01, 4.11767244e-01,
          4.11767244e-01, 3.46361473e-02, 4.11767244e-01, 4.11767244e-01,
          3.03960532e-01, 1.74947560e-01, 1.65677965e-01, 5.56055196e-02,
          5.39431386e-02, 6.75350949e-02, 1.04124285e-01, 6.40994489e-01,
          6.40994489e-01, 3.59461337e-01, 3.59461337e-01, 2.70581543e-01,
          3.59461337e-01, 3.59461337e-01, 3.59461337e-01, 3.59461337e-01,
          1.36774108e-01, 3.59461337e-01, 3.43338698e-01, 3.43338698e-01,
          3.43338698e-01, 3.43338698e-01, 3.32386434e-01, 3.43338698e-01,
          3.43338698e-01, 2.46817261e-01, 3.43338698e-01, 6.45372048e-02,
          2.50778109e-01, 3.73839766e-01, 1.38019845e-01, 3.71881388e-02,
          3.02953087e-02, 2.34349325e-01, 5.96223950e-01, 5.96223950e-01,
          4.53842938e-01, 6.07039332e-02, 6.82382658e-02, 3.73064637e-01,
          4.53842938e-01, 4.18876261e-01, 1.06175117e-01, 2.08080336e-01,
          4.53842938e-01, 3.81212324e-01, 3.81212324e-01, 3.81212324e-01,
          3.81212324e-01, 3.81212324e-01, 1.29277736e-01, 8.24252516e-02,
          3.17408234e-01, 3.81212324e-01, 2.81192958e-01, 3.74876678e-01,
          4.40451026e-01, 1.85039803e-01, 1.79273412e-02, 2.09888935e-01,
          4.98857886e-01, 4.98857886e-01, 7.13139921e-02, 4.53842938e-01,
          6.07039332e-02, 6.82382658e-02, 3.73064637e-01, 4.53842938e-01,
          4.18876261e-01, 1.06175117e-01, 2.08080336e-01, 4.53842938e-01,
          3.81212324e-01, 3.81212324e-01, 3.81212324e-01, 3.81212324e-01,
          3.81212324e-01, 1.29277736e-01, 8.24252516e-02, 3.17408234e-01,
          3.81212324e-01, 2.81192958e-01, 3.74876678e-01, 4.40451026e-01,
          1.85039803e-01, 1.79273412e-02, 2.09888935e-01, 4.98857886e-01,
          4.98857886e-01, 7.13139921e-02, 3.86942148e-01, 3.27511549e-01,
          1.00104816e-01, 3.86942148e-01, 3.86942148e-01, 3.86942148e-01,
          1.43662184e-01, 3.31043094e-01, 3.86942148e-01, 2.16659009e-01,
          3.67579550e-01, 3.67579550e-01, 3.67579550e-01, 2.80770928e-01,
          3.67579550e-01, 2.44675100e-01, 3.67579550e-01, 3.67579550e-01,
          5.85818365e-02, 2.15744108e-01, 4.23707187e-01, 1.10717915e-01,
          7.67226666e-02, 6.09742701e-01, 6.09742701e-01, 4.91509326e-02,
          1.65479742e-02, 3.71623307e-01, 1.71538204e-01, 2.95287631e-02,
          4.57593501e-01, 4.57593501e-01, 2.71612048e-01, 2.85104066e-02,
          3.52514952e-01, 4.57593501e-01, 4.88755614e-01, 4.88755614e-01,
          1.37287259e-01, 6.29532933e-02, 4.88755614e-01, 4.88755614e-01,
          8.14959034e-02, 3.88836861e-02, 9.28749889e-02, 1.91318896e-02,
          1.64611816e-01, 9.35356617e-02, 2.57175546e-02, 6.59091115e-01,
          6.59091115e-01, 2.96213806e-01, 0., 1.33384613e-03 ]
      - [ 3.98415655e-01, 3.98415655e-01, 3.98415655e-01, 3.98415655e-01,
          2.74728268e-01, 1.54012620e-01, 3.98415655e-01, 2.20283970e-01,
          2.33717978e-01, 3.32778692e-01, 3.32778692e-01, 3.32778692e-01,
          3.32778692e-01, 3.32778692e-01, 3.32778692e-01, 3.32778692e-01,
          3.32778692e-01, 3.32778692e-01, 3.67498428e-01, 3.67498428e-01,
          3.67498428e-01, 3.67498428e-01, 3.67498428e-01, 3.67498428e-01,
          1.09476775e-01, 1.97376758e-01, 3.67498428e-01, 4.13476765e-01,
          4.13476765e-01, 4.13476765e-01, 4.13476765e-01, 4.13476765e-01,
          2.47260377e-01, 1.90470472e-01, 1.40409932e-01, 1.54669136e-01,
          3.38944733e-01, 4.08583879e-01, 4.22073752e-01, 2.52319574e-01,
          2.50234962e-01, 4.22073752e-01, 4.22073752e-01, 1.60664782e-01,
          1.65603921e-01, 2.02395886e-01, 3.32728028e-01, 4.81616408e-01,
          1.57032564e-01, 4.81616408e-01, 4.81616408e-01, 2.66103894e-01,
          1.06597230e-01, 2.02042356e-01, 3.93316686e-01, 3.93316686e-01,
          3.93316686e-01, 1.95245340e-01, 1.56988233e-01, 1.50853708e-01,
          3.93316686e-01, 3.70213211e-01, 3.93316686e-01, 3.33889544e-01,
          4.56363201e-01, 1.47306293e-01, 5.37464619e-02, 1.21957064e-01,
          4.56363201e-01, 4.56363201e-01, 4.56363201e-01, 1.06903724e-01,
          4.31442469e-01, 4.31442469e-01, 4.31442469e-01, 5.28207272e-02,
          1.58630341e-01, 3.19316953e-01, 2.54475504e-01, 2.37581715e-01,
          4.31442469e-01, 3.93316686e-01, 3.93316686e-01, 3.93316686e-01,
          1.95245340e-01, 1.56988233e-01, 1.50853708e-01, 3.93316686e-01,
          3.70213211e-01, 3.93316686e-01, 3.33889544e-01, 4.56363201e-01,
          1.47306293e-01, 5.37464619e-02, 1.21957064e-01, 4.56363201e-01,
          4.56363201e-01, 4.56363201e-01, 1.06903724e-01, 4.31442469e-01,
          4.31442469e-01, 4.31442469e-01, 5.28207272e-02, 1.58630341e-01,
          3.19316953e-01, 2.54475504e-01, 2.37581715e-01, 4.31442469e-01,
          4.10347432e-01, 4.10347432e-01, 1.90669864e-01, 3.78255010e-01,
          4.10347432e-01, 2.65600562e-01, 1.91332445e-01, 1.89148128e-01,
          4.10347432e-01, 3.25088263e-01, 2.73008883e-01, 1.01141989e-01,
          5.22870608e-02, 3.44055653e-01, 3.48599970e-01, 4.33050394e-01,
          4.33050394e-01, 4.33050394e-01, 3.00323486e-01, 4.50044960e-01,
          4.50044960e-01, 4.50044960e-01, 1.52886175e-02, 1.10837044e-02,
          4.44324464e-02, 3.04659963e-01, 4.50044960e-01, 4.75978225e-01,
          1.51424795e-01, 1.21065170e-01, 1.99736267e-01, 4.75978225e-01,
          4.75978225e-01, 1.07375957e-01, 3.76147754e-03, 4.75978225e-01,
          3.83064359e-01, 3.48374367e-01, 1.26961544e-01, 2.46729717e-01,
          3.83064359e-01, 3.83064359e-01, 2.53223449e-01, 3.83064359e-01,
          3.83064359e-01, 1.76286280e-01, 5.14091179e-02, 4.39687252e-01,
          4.39687252e-01, 4.15387630e-01, 6.64837062e-02, 1.07804306e-01,
          4.39687252e-01, 4.39687252e-01, 3.67498428e-01, 3.67498428e-01,
          3.67498428e-01, 3.67498428e-01, 3.67498428e-01, 3.67498428e-01,
          1.09476775e-01, 1.97376758e-01, 3.67498428e-01, 4.06862706e-01,
          4.06862706e-01, 4.06862706e-01, 4.06862706e-01, 4.06862706e-01,
          2.92894006e-01, 9.08716395e-02, 1.52625799e-01, 2.25632966e-01,
          1.40928373e-01, 2.69202422e-02, 2.55378056e-02, 3.81248862e-01,
          4.20732468e-01, 3.75302136e-01, 4.20732468e-01, 4.20732468e-01,
          3.96622717e-01, 2.02395886e-01, 3.32728028e-01, 4.81616408e-01,
          1.57032564e-01, 4.81616408e-01, 4.81616408e-01, 2.66103894e-01,
          1.06597230e-01, 2.02042356e-01, 2.83941716e-01, 4.76975292e-01,
          4.76975292e-01, 1.25029802e-01, 1.98547319e-01, 1.08253106e-01,
          4.76975292e-01, 3.85307640e-01, 1.29855812e-01, 8.82291049e-02,
          1.13272868e-01, 1.20766960e-01, 4.44108635e-01, 4.85889494e-01,
          2.07412526e-01, 4.85889494e-01, 4.85889494e-01, 1.06906742e-01,
          4.31442469e-01, 4.31442469e-01, 4.31442469e-01, 5.28207272e-02,
          1.58630341e-01, 3.19316953e-01, 2.54475504e-01, 2.37581715e-01,
          4.31442469e-01, 1.20354898e-01, 5.45662582e-01, 5.45662582e-01,
          2.84810290e-02, 9.36883967e-03, 4.62679304e-02, 5.45662582e-01,
          2.32719421e-01, 1.72118515e-01, 4.93435681e-01, 1.45148560e-01,
          1.46096602e-01, 5.28664365e-02, 2.30779275e-02, 9.43883806e-02,
          5.93928754e-01, 5.46068132e-01, 2.12132424e-01, 4.31442469e-01,
          4.31442469e-01, 4.31442469e-01, 5.28207272e-02, 1.58630341e-01,
          3.19316953e-01, 2.54475504e-01, 2.37581715e-01, 4.31442469e-01,
          1.20354898e-01, 5.45662582e-01, 5.45662582e-01, 2.84810290e-02,
          9.36883967e-03, 4.62679304e-02, 5.45662582e-01, 2.32719421e-01,
          1.72118515e-01, 4.93435681e-01, 1.45148560e-01, 1.46096602e-01,
          5.28664365e-02, 2.30779275e-02, 9.43883806e-02, 5.93928754e-01,
          5.46068132e-01, 2.12132424e-01, 3.00323486e-01, 4.50044960e-01,
          4.50044960e-01, 4.50044960e-01, 1.52886175e-02, 1.10837044e-02,
          4.44324464e-02, 3.04659963e-01, 4.50044960e-01, 3.68971348e-01,
          3.68971348e-01, 3.68971348e-01, 3.68971348e-01, 3.36651653e-02,
          2.05429584e-01, 3.68971348e-01, 3.68971348e-01, 3.68971348e-01,
          4.44909185e-01, 6.63523674e-02, 2.79741082e-02, 5.50985476e-03,
          2.48848293e-02, 4.44909185e-01, 4.44909185e-01, 4.44909185e-01,
          4.44909185e-01, 1.76286280e-01, 5.14091179e-02, 4.39687252e-01,
          4.39687252e-01, 4.15387630e-01, 6.64837062e-02, 1.07804306e-01,
          4.39687252e-01, 4.39687252e-01, 1.82474136e-01, 6.33066222e-02,
          4.11555141e-01, 4.77183968e-01, 4.77183968e-01, 4.77183968e-01,
          1.34755731e-01, 7.66000897e-02, 2.85327017e-01, 5.08281231e-01,
          2.09515810e-01, 2.65027657e-02, 6.43487722e-02, 1.62259549e-01,
          5.08281231e-01, 4.67461467e-01, 1.74488470e-01, 3.92669499e-01 ]
      - [ 3.77339631e-01, 3.74295771e-01, 3.77339631e-01, 3.77339631e-01,
          1.40054286e-01, 1.43195465e-01, 3.22624892e-01, 3.77339631e-01,
          3.77339631e-01, 2.06082672e-01, 2.24027738e-01, 1.75988823e-01,
          1.53640628e-01, 3.96875620e-01, 4.16807264e-01, 4.16807264e-01,
          4.16807264e-01, 4.12195712e-01, 4.21449155e-01, 4.21449155e-01,
          1.70281038e-01, 1.43844783e-01, 4.21449155e-01, 4.21449155e-01,
          2.15859368e-01, 2.44345829e-01, 3.59618574e-01, 3.33213776e-01,
          4.07429546e-01, 4.07429546e-01, 4.07429546e-01, 1.64973170e-01,
          3.01880073e-02, 1.63636044e-01, 4.07429546e-01, 4.07429546e-01,
          1.24251381e-01, 2.26013884e-01, 5.30451596e-01, 1.30695567e-01,
          4.77610528e-02, 1.95071086e-01, 5.40233672e-01, 5.40233672e-01,
          7.47352764e-02, 4.37880129e-01, 4.37880129e-01, 4.37880129e-01,
          2.44124576e-01, 4.25856374e-02, 1.04189888e-01, 4.37880129e-01,
          3.54611367e-01, 1.75085470e-01, 1.47901088e-01, 6.88898563e-02,
          4.28008169e-01, 4.28008169e-01, 4.28008169e-01, 2.12274104e-01,
          8.99357572e-02, 4.28008169e-01, 4.28008169e-01, 2.64933467e-01,
          6.68303743e-02, 3.33849609e-01, 1.63930058e-01, 4.36389685e-01,
          4.36389685e-01, 4.36389685e-01, 3.86631250e-01, 2.48726115e-01,
          1.14650592e-01, 3.43702346e-01, 5.22737145e-01, 4.96871382e-01,
          1.47464305e-01, 1.14699654e-01, 5.22737145e-01, 1.73539117e-01,
          7.13898614e-02, 1.47901088e-01, 6.88898563e-02, 4.28008169e-01,
          4.28008169e-01, 4.28008169e-01, 2.12274104e-01, 8.99357572e-02,
          4.28008169e-01, 4.28008169e-01, 2.64933467e-01, 6.68303743e-02,
          3.33849609e-01, 1.63930058e-01, 4.36389685e-01, 4.36389685e-01,
          4.36389685e-01, 3.86631250e-01, 2.48726115e-01, 1.14650592e-01,
          3.43702346e-01, 5.22737145e-01, 4.96871382e-01, 1.47464305e-01,
          1.14699654e-01, 5.22737145e-01, 1.73539117e-01, 7.13898614e-02,
          3.93061608e-01, 8.67971499e-03, 1.03103546e-02, 2.70391971e-01,
          4.23777550e-01, 2.22769678e-01, 4.23777550e-01, 4.23777550e-01,
          4.23777550e-01, 4.85538214e-01, 6.73806518e-02, 1.41937882e-01,
          1.13389514e-01, 4.85538214e-01, 3.50126356e-01, 1.28549010e-01,
          3.33543539e-01, 4.85538214e-01, 1.74070537e-01, 1.91171482e-01,
          4.75632489e-01, 4.75632489e-01, 1.34254575e-01, 4.17282023e-02,
          6.10870235e-02, 4.75632489e-01, 4.75632489e-01, 1.51196450e-01,
          4.84201610e-02, 9.46777761e-02, 1.77267089e-01, 4.72121060e-01,
          4.48729217e-01, 4.93178457e-01, 4.93178457e-01, 1.37024537e-01,
          4.03303474e-01, 4.03251499e-01, 2.77144551e-01, 3.54650915e-01,
          1.99316576e-01, 2.37523586e-01, 2.16025919e-01, 4.03303474e-01,
          4.03303474e-01, 5.03163412e-02, 1.21025957e-01, 3.44721258e-01,
          5.28000176e-01, 1.00045107e-01, 8.52868780e-02, 7.12729096e-02,
          5.28000176e-01, 5.28000176e-01, 4.21449155e-01, 4.21449155e-01,
          1.70281038e-01, 1.43844783e-01, 4.21449155e-01, 4.21449155e-01,
          2.15859368e-01, 2.44345829e-01, 3.59618574e-01, 3.93497497e-01,
          1.17882729e-01, 3.59582007e-01, 3.93497497e-01, 2.29542926e-01,
          3.93497497e-01, 1.61189228e-01, 3.93497497e-01, 3.93497497e-01,
          3.90640855e-01, 3.23366612e-01, 4.41113144e-01, 4.41113144e-01,
          3.29349898e-02, 1.71780139e-02, 6.19424656e-02, 4.06012148e-01,
          4.23324198e-01, 4.37880129e-01, 4.37880129e-01, 4.37880129e-01,
          2.44124576e-01, 4.25856374e-02, 1.04189888e-01, 4.37880129e-01,
          3.54611367e-01, 1.75085470e-01, 3.91375899e-01, 3.68710533e-02,
          2.23660216e-01, 1.86390221e-01, 1.31928340e-01, 1.38991967e-01,
          2.09206790e-01, 5.80693722e-01, 5.80693722e-01, 1.55629972e-02,
          1.99701954e-02, 4.96861458e-01, 4.96861458e-01, 1.70841049e-02,
          2.38930248e-02, 7.77722225e-02, 4.96861458e-01, 4.96861458e-01,
          1.14650592e-01, 3.43702346e-01, 5.22737145e-01, 4.96871382e-01,
          1.47464305e-01, 1.14699654e-01, 5.22737145e-01, 1.73539117e-01,
          7.13898614e-02, 2.71714658e-01, 1.47499084e-01, 3.80793452e-01,
          3.49028349e-01, 3.11005980e-01, 1.50865212e-01, 3.58518600e-01,
          4.53223377e-01, 4.23829824e-01, 5.09192422e-02, 1.29132280e-02,
          9.96190831e-02, 3.54583919e-01, 1.90286651e-01, 1.42766714e-01,
          3.84090662e-01, 6.00005805e-01, 5.39881349e-01, 1.14650592e-01,
          3.43702346e-01, 5.22737145e-01, 4.96871382e-01, 1.47464305e-01,
          1.14699654e-01, 5.22737145e-01, 1.73539117e-01, 7.13898614e-02,
          2.71714658e-01, 1.47499084e-01, 3.80793452e-01, 3.49028349e-01,
          3.11005980e-01, 1.50865212e-01, 3.58518600e-01, 4.53223377e-01,
          4.23829824e-01, 5.09192422e-02, 1.29132280e-02, 9.96190831e-02,
          3.54583919e-01, 1.90286651e-01, 1.42766714e-01, 3.84090662e-01,
          6.00005805e-01, 5.39881349e-01, 1.74070537e-01, 1.91171482e-01,
          4.75632489e-01, 4.75632489e-01, 1.34254575e-01, 4.17282023e-02,
          6.10870235e-02, 4.75632489e-01, 4.75632489e-01, 1.68127999e-01,
          2.73106694e-01, 5.13673842e-01, 5.13673842e-01, 1.26636669e-01,
          1.44346640e-01, 3.83415014e-01, 3.84614885e-01, 1.80237383e-01,
          1.09857775e-01, 3.81498411e-02, 3.05076558e-02, 1.02435676e-02,
          2.08213538e-01, 3.86568069e-01, 5.12359083e-01, 5.12359083e-01,
          5.12359083e-01, 5.03163412e-02, 1.21025957e-01, 3.44721258e-01,
          5.28000176e-01, 1.00045107e-01, 8.52868780e-02, 7.12729096e-02,
          5.28000176e-01, 5.28000176e-01, 3.10082696e-02, 3.70867327e-02,
          4.89463419e-01, 4.89463419e-01, 1.74949303e-01, 7.53269121e-02,
          6.99960887e-02, 4.89463419e-01, 4.82566386e-01, 1.35260671e-01,
          7.94294775e-02, 1.10783175e-01, 4.19559658e-01, 4.39104140e-01,
          4.39104140e-01, 4.39104140e-01, 4.08924699e-01, 1.92481950e-01 ]
      - [ 1.11689582e-01, 3.27051207e-02, 1.24905836e-02, 1.04894610e-02,
          1.13849074e-01, 6.64847553e-01, 6.64847553e-01, 1.50080845e-01,
          2.44993657e-01, 3.87035944e-02, 1.95670515e-01, 5.39664984e-01,
          4.19544205e-02, 5.39664984e-01, 5.39664984e-01, 2.36443087e-01,
          1.22286014e-01, 9.21491012e-02, 3.99239421e-01, 3.99239421e-01,
          3.99239421e-01, 2.79511306e-02, 1.55452907e-01, 1.87427014e-01,
          3.99239421e-01, 3.99239421e-01, 3.72793943e-01, 9.08558667e-02,
          2.23883703e-01, 6.71449006e-02, 9.59212892e-03, 3.61763313e-02,
          6.79839790e-01, 6.79839790e-01, 6.24479949e-02, 2.57172473e-02,
          2.94462629e-02, 4.71168816e-01, 4.71168816e-01, 3.04824322e-01,
          1.87871262e-01, 4.71168816e-01, 4.19214159e-01, 1.55959800e-01,
          1.22168036e-02, 5.07959863e-03, 5.49799919e-01, 5.49799919e-01,
          2.12232806e-02, 1.30459038e-03, 6.34819875e-03, 5.49799919e-01,
          2.95202732e-01, 2.62531871e-03, 1.55158669e-01, 8.85988399e-02,
          3.31690520e-01, 1.19568594e-01, 2.06296481e-02, 5.18136501e-01,
          5.31482339e-01, 5.31482339e-01, 6.79350421e-02, 4.46299374e-01,
          4.46299374e-01, 4.46299374e-01, 1.41182050e-01, 3.35626006e-02,
          8.71731117e-02, 1.58142149e-01, 3.80975753e-01, 4.46299374e-01,
          7.53224418e-02, 5.45482099e-01, 5.45482099e-01, 1.87939666e-02,
          3.45328660e-03, 9.90130939e-03, 5.39104819e-01, 2.68959343e-01,
          1.74187809e-01, 1.55158669e-01, 8.85988399e-02, 3.31690520e-01,
          1.19568594e-01, 2.06296481e-02, 5.18136501e-01, 5.31482339e-01,
          5.31482339e-01, 6.79350421e-02, 4.46299374e-01, 4.46299374e-01,
          4.46299374e-01, 1.41182050e-01, 3.35626006e-02, 8.71731117e-02,
          1.58142149e-01, 3.80975753e-01, 4.46299374e-01, 7.53224418e-02,
          5.45482099e-01, 5.45482099e-01, 1.87939666e-02, 3.45328660e-03,
          9.90130939e-03, 5.39104819e-01, 2.68959343e-01, 1.74187809e-01,
          4.52033617e-03, 5.73033690e-02, 5.38913310e-01, 2.53908217e-01,
          1.89280268e-02, 3.02997082e-02, 5.38913310e-01, 5.38913310e-01,
          2.32992679e-01, 2.36222029e-01, 4.97200489e-01, 4.97200489e-01,
          3.28226954e-01, 1.10959634e-02, 1.15225809e-02, 4.32063974e-02,
          2.96230823e-01, 4.97200489e-01, 4.22945082e-01, 4.22945082e-01,
          4.22945082e-01, 2.42486447e-01, 1.78846028e-02, 1.59459282e-02,
          2.04910919e-01, 4.22945082e-01, 4.22945082e-01, 1.49396956e-02,
          9.79718193e-03, 6.81687668e-02, 6.42415658e-02, 3.53536010e-02,
          2.00265851e-02, 1.18615024e-01, 6.95787609e-01, 6.95787609e-01,
          4.93907295e-02, 5.96276559e-02, 4.98671204e-01, 4.98671204e-01,
          1.86236367e-01, 3.73485908e-02, 2.00030096e-02, 4.54451948e-01,
          4.98671204e-01, 1.63613170e-01, 5.78151941e-02, 2.36779660e-01,
          7.36188352e-01, 3.72685641e-01, 3.32696944e-01, 9.03432369e-02,
          8.95271003e-02, 3.14234465e-01, 3.99239421e-01, 3.99239421e-01,
          3.99239421e-01, 2.79511306e-02, 1.55452907e-01, 1.87427014e-01,
          3.99239421e-01, 3.99239421e-01, 3.72793943e-01, 2.20130950e-01,
          8.16230699e-02, 9.57963392e-02, 4.64713067e-01, 4.44323808e-01,
          1.42246410e-01, 4.64713067e-01, 4.64713067e-01, 2.55986333e-01,
          4.88146618e-02, 4.59624305e-02, 2.03991145e-01, 6.69414639e-01,
          6.69414639e-01, 1.97989624e-02, 1.76753163e-01, 1.32872686e-01,
          4.10909764e-02, 5.07959863e-03, 5.49799919e-01, 5.49799919e-01,
          2.12232806e-02, 1.30459038e-03, 6.34819875e-03, 5.49799919e-01,
          2.95202732e-01, 2.62531871e-03, 4.11205785e-03, 5.74813597e-02,
          2.06501290e-01, 8.28351602e-02, 4.34384309e-03, 4.49114963e-02,
          6.84846103e-01, 6.84846103e-01, 1.65376570e-02, 2.73684822e-02,
          5.42375706e-02, 4.47351307e-01, 4.47351307e-01, 3.80689621e-01,
          1.81219608e-01, 4.47351307e-01, 4.47351307e-01, 1.16545841e-01,
          7.53224418e-02, 5.45482099e-01, 5.45482099e-01, 1.87939666e-02,
          3.45328660e-03, 9.90130939e-03, 5.39104819e-01, 2.68959343e-01,
          1.74187809e-01, 4.46927696e-01, 3.63119602e-01, 2.10291162e-01,
          6.33927668e-03, 0., 1.43828848e-03, 5.23288310e-01,
          5.23288310e-01, 2.66923130e-01, 4.48139966e-01, 3.63788962e-01,
          1.78348899e-01, 5.31705655e-02, 1.88775565e-02, 1.57707632e-01,
          4.48139966e-01, 4.48139966e-01, 4.48139966e-01, 7.53224418e-02,
          5.45482099e-01, 5.45482099e-01, 1.87939666e-02, 3.45328660e-03,
          9.90130939e-03, 5.39104819e-01, 2.68959343e-01, 1.74187809e-01,
          4.46927696e-01, 3.63119602e-01, 2.10291162e-01, 6.33927668e-03,
          0., 1.43828848e-03, 5.23288310e-01, 5.23288310e-01,
          2.66923130e-01, 4.48139966e-01, 3.63788962e-01, 1.78348899e-01,
          5.31705655e-02, 1.88775565e-02, 1.57707632e-01, 4.48139966e-01,
          4.48139966e-01, 4.48139966e-01, 4.22945082e-01, 4.22945082e-01,
          4.22945082e-01, 2.42486447e-01, 1.78846028e-02, 1.59459282e-02,
          2.04910919e-01, 4.22945082e-01, 4.22945082e-01, 4.04571056e-01,
          4.04571056e-01, 1.12694599e-01, 1.76181886e-02, 2.96902563e-02,
          4.04571056e-01, 4.04571056e-01, 4.04571056e-01, 4.04571056e-01,
          3.08093548e-01, 3.54616851e-01, 1.54454872e-01, 1.10341678e-03,
          8.10656790e-03, 4.72333580e-01, 4.96342808e-01, 4.96342808e-01,
          1.86100155e-01, 1.63613170e-01, 5.78151941e-02, 2.36779660e-01,
          7.36188352e-01, 3.72685641e-01, 3.32696944e-01, 9.03432369e-02,
          8.95271003e-02, 3.14234465e-01, 5.34546733e-01, 1.58374518e-01,
          4.01438288e-02, 1.36018798e-01, 1.37769043e-01, 5.94668388e-01,
          5.33202946e-01, 4.78885062e-02, 6.25897497e-02, 4.90513802e-01,
          4.90513802e-01, 4.14272919e-02, 1.38024129e-02, 1.26147661e-02,
          4.90513802e-01, 4.90513802e-01, 1.01545155e-01, 1.42506897e-01 ]
      - [ 5.33805788e-01, 5.33805788e-01, 1.09676220e-01, 2.49863304e-02,
          1.86991617e-01, 4.60231036e-01, 1.60120085e-01, 9.01609883e-02,
          3.62729579e-01, 4.11929578e-01, 4.11929578e-01, 2.25787476e-01,
          2.72396524e-02, 1.26487285e-01, 3.69456232e-01, 4.11929578e-01,
          3.36038917e-01, 4.11929578e-01, 3.58146280e-01, 3.58146280e-01,
          3.26448828e-01, 1.22357912e-01, 3.24451804e-01, 3.58146280e-01,
          3.58146280e-01, 3.58146280e-01, 3.58146280e-01, 3.41547877e-01,
          4.37669247e-01, 4.37669247e-01, 1.17725842e-01, 8.99423957e-02,
          4.37669247e-01, 4.37669247e-01, 2.40412951e-01, 1.81681767e-01,
          2.26334468e-01, 3.85646045e-01, 3.85646045e-01, 3.85646045e-01,
          2.43485436e-01, 3.18734586e-01, 3.85646045e-01, 3.85646045e-01,
          2.01069087e-01, 3.67465347e-01, 3.67465347e-01, 2.69553900e-01,
          1.81917936e-01, 3.67465347e-01, 2.83532470e-01, 3.67465347e-01,
          3.67465347e-01, 3.67465347e-01, 2.74153620e-01, 2.64496565e-01,
          4.36997801e-01, 9.41286311e-02, 2.04126909e-02, 1.58073425e-01,
          5.52744269e-01, 5.52744269e-01, 1.14359461e-01, 4.31287140e-01,
          4.31287140e-01, 4.08225089e-01, 4.31287140e-01, 4.31287140e-01,
          2.23156795e-01, 7.87583739e-02, 6.90335259e-02, 1.55699477e-01,
          4.19057578e-01, 3.13555330e-01, 8.44565555e-02, 4.19057578e-01,
          4.19057578e-01, 4.19057578e-01, 9.39988941e-02, 5.90080358e-02,
          4.19057578e-01, 2.74153620e-01, 2.64496565e-01, 4.36997801e-01,
          9.41286311e-02, 2.04126909e-02, 1.58073425e-01, 5.52744269e-01,
          5.52744269e-01, 1.14359461e-01, 4.31287140e-01, 4.31287140e-01,
          4.08225089e-01, 4.31287140e-01, 4.31287140e-01, 2.23156795e-01,
          7.87583739e-02, 6.90335259e-02, 1.55699477e-01, 4.19057578e-01,
          3.13555330e-01, 8.44565555e-02, 4.19057578e-01, 4.19057578e-01,
          4.19057578e-01, 9.39988941e-02, 5.90080358e-02, 4.19057578e-01,
          4.83162440e-02, 1.14981882e-01, 2.79567868e-01, 1.04691416e-01,
          7.19109476e-02, 8.26031864e-02, 1.98760197e-01, 6.47057235e-01,
          6.47057235e-01, 2.64054239e-01, 4.06082362e-01, 4.06082362e-01,
          4.06082362e-01, 6.68256730e-02, 1.92068025e-01, 4.06082362e-01,
          4.06082362e-01, 2.45659530e-01, 3.89001340e-01, 1.09360628e-01,
          4.61443141e-02, 2.72198945e-01, 3.89001340e-01, 3.89001340e-01,
          3.89001340e-01, 3.89001340e-01, 3.89001340e-01, 5.78139201e-02,
          1.34484516e-02, 5.90318777e-02, 4.92594242e-01, 4.92594242e-01,
          1.14802383e-01, 6.55459017e-02, 4.92594242e-01, 4.92594242e-01,
          3.60864609e-01, 9.10855681e-02, 4.09570545e-01, 4.09570545e-01,
          4.09570545e-01, 2.30851658e-02, 1.34594128e-01, 4.09570545e-01,
          4.09570545e-01, 4.30403531e-01, 1.51818529e-01, 1.07568309e-01,
          4.30403531e-01, 4.30403531e-01, 1.13142021e-01, 1.48471311e-01,
          4.30403531e-01, 4.30403531e-01, 3.58146280e-01, 3.58146280e-01,
          3.26448828e-01, 1.22357912e-01, 3.24451804e-01, 3.58146280e-01,
          3.58146280e-01, 3.58146280e-01, 3.58146280e-01, 3.97255689e-01,
          3.97255689e-01, 3.97255689e-01, 3.97255689e-01, 2.02177182e-01,
          2.08660327e-02, 8.85884687e-02, 3.97255689e-01, 3.97255689e-01,
          2.57694334e-01, 1.56695530e-01, 1.60589889e-01, 4.10929829e-01,
          4.10929829e-01, 1.86626300e-01, 4.10929829e-01, 4.10929829e-01,
          4.10929829e-01, 3.67465347e-01, 3.67465347e-01, 2.69553900e-01,
          1.81917936e-01, 3.67465347e-01, 2.83532470e-01, 3.67465347e-01,
          3.67465347e-01, 3.67465347e-01, 3.35548878e-01, 3.35548878e-01,
          3.35548878e-01, 3.35548878e-01, 3.19584787e-01, 3.35548878e-01,
          3.26131135e-01, 3.35548878e-01, 3.35548878e-01, 7.00570047e-02,
          1.66278005e-01, 2.70335764e-01, 3.83210361e-01, 1.35996073e-01,
          4.90168422e-01, 4.90168422e-01, 4.90168422e-01, 5.76731749e-02,
